the 0.423481 0.369929 1.111249 0.013840 1.331685 -0.036856 0.136573 -1.160079 1.081410 -0.267557 1.072362 -0.662614 0.302431 0.729101 0.474247 0.278960 -0.280488 0.004319 -0.331027 -1.139855 0.873810 0.439595 0.012209 -0.578647 -1.497120 1.513142 1.548429 -1.184689 -0.129661 -1.157317 -1.173521 0.417770 0.280298 -0.871747 0.138689 -1.470589 -0.740268 -1.200067 0.553129 -0.028033 -0.764184 -0.895674 -0.441862 0.383504 1.000089 0.260861 0.749269 0.185020 0.131727 0.340547 -0.344766 -0.407601 -0.043519 0.290494 0.398504 -0.773131 -0.869276 0.266693 0.064334 0.090130 -0.648486 0.511872 -0.445843 0.597920 0.653623 -0.941519 -0.043308 -0.332342 0.172823 -0.698242 -1.847576 0.069881 0.012272 -0.735785 -0.784222 -0.828876 -0.456200 0.646002 0.693919 0.822569 1.368644 0.109617 0.463271 -0.603371 0.361129 0.161419 -0.743007 -0.019925 -0.080299 -1.114887 1.146786 -0.334220 -0.753947 -0.310419 1.578926 -0.085661 0.223148 0.394603 -1.498727 -0.148537 -0.365898 0.025269 0.021248 -0.314098 0.050202 0.054609 -0.277960 0.544278 -0.435334 -0.169918 0.483400 -0.983173 -0.221309 0.850029 0.327870 -0.368783 0.625249 0.683342 0.940899 -0.379885 1.062074 -0.161842 -1.961636 -0.147341 1.074315 -0.198932 -1.180118 -1.491377 1.270047 -0.638153 0.135226 -0.438000 0.706228 0.152204 1.549054 0.760666 -0.924413 1.205274 0.178499 -0.100179 -0.226805 0.709010 0.195869 -1.441875 0.378016 -0.277887 -0.584087 -0.373487 1.085315 0.065988 0.214293 0.187806 0.864823 0.163416 0.029375 0.453806 -0.739024 1.008111 -0.062418 0.996677 -0.653721 -0.414149 -0.163712 -0.440736 -0.201925 -1.024757 0.668899 0.898666 -1.385766 0.161593 0.940620 0.273511 -0.502011 0.256759 0.374460 0.230816 1.190675 0.061708 -0.645102 1.098487 0.370113 0.051426 1.280075 0.734996 1.056489 0.556695 -0.476943 -0.559041 0.795830 1.050507 -0.101864 -0.016859 0.361455 -0.641836 -0.702506 -0.300165 -0.174840 -0.124918 0.214492 -0.152847
of 0.347326 0.256732 0.978557 0.664598 1.915115 -0.152742 -0.077042 -0.315033 1.016435 -1.393754 -0.416958 0.021981 1.710629 0.864251 -0.399277 0.398133 0.101121 0.079282 -0.139161 -0.615228 1.299359 0.042341 0.474488 0.645718 -1.040032 1.395249 1.601676 -0.840413 -1.073437 -1.609714 -1.197873 0.998504 -0.227110 -0.924611 -0.254570 -1.151173 -1.145831 -1.504837 0.667648 -0.059846 0.266880 -1.178244 -1.238701 1.354323 0.076703 -0.367869 0.078205 0.777750 0.067474 0.748478 -0.139588 -0.022192 -0.473571 0.695823 0.715945 0.269474 -0.390407 0.718708 1.127631 -0.194451 -1.205972 -0.260799 -1.477016 0.532387 0.154505 -1.375419 0.207630 -0.838946 -0.470087 -0.205306 -2.636642 -0.028259 -0.198958 -1.021826 -0.405941 -0.391061 -0.366775 0.166835 0.755161 0.856733 1.066193 0.737525 -0.035915 -0.770104 -0.270519 0.665386 -0.559645 -0.424040 -0.294943 -1.282766 1.474055 -0.097383 -0.867188 0.799338 1.083010 -0.421800 -0.790136 -0.660116 -1.080335 0.456340 -0.449247 -0.237850 -0.235273 0.362039 0.528574 -0.821794 -0.966689 0.448742 -0.866953 0.372427 0.662549 0.075496 -0.093711 0.148170 0.370611 0.076506 -0.156174 -0.584489 -1.209938 1.023793 1.343036 -0.414471 -1.593594 -0.083708 0.948680 -0.567545 -0.915469 -1.180705 0.402490 -0.013225 0.060949 0.145903 1.101282 0.336173 1.226937 0.454223 -0.927545 0.192356 0.376562 -0.126052 -0.553591 0.637954 0.881756 -1.020960 -0.086503 -0.617522 -0.150303 -0.917751 1.336410 0.147632 -0.439876 0.335380 -0.001045 0.102398 0.295097 -0.376770 -0.826811 0.443528 -1.051907 0.398027 -0.733468 -0.142141 -0.159924 1.172444 0.080756 -1.166991 0.413222 1.088896 -0.958838 1.361944 1.607168 0.000364 -0.329571 0.183091 0.579798 0.821566 0.078850 -0.463960 -0.118367 0.798666 0.058547 0.807378 0.954146 0.660595 1.037413 0.027089 -0.387917 -1.003190 0.846678 0.136757 0.127639 -0.008331 0.144783 -1.405822 -0.188766 0.498547 -0.031739 0.051859 0.156524 -0.132912
and 0.147369 1.221511 0.757800 0.480953 0.226658 -0.025788 -0.055247 0.382118 -0.413325 -1.231623 0.289430 -0.096735 0.391993 0.185426 0.025673 0.319435 -1.039799 -0.701012 -0.657406 -1.061504 0.297229 -0.238879 0.861579 0.896845 0.011265 0.545350 0.810166 0.000069 -0.614768 -0.462176 -0.670004 -0.095376 -0.000337 -0.696741 -0.019944 -0.245736 -0.218187 0.164963 0.698945 0.167969 -0.704835 -0.659717 -0.891806 0.783196 -0.045653 -0.455863 -0.681985 1.192346 -0.081389 -0.331664 0.142657 0.228637 -0.294870 0.803589 0.174354 0.013952 0.326803 0.815193 -0.515618 0.243344 -0.824895 0.348210 -0.459551 -0.006290 -0.511539 -0.721134 0.358636 0.096647 -0.886414 0.386325 -1.120075 0.373366 0.217576 -0.294054 -0.370156 -0.389886 -0.312941 0.751838 0.060697 1.033488 1.127014 -0.163397 -0.043054 -0.432478 0.505130 0.591029 -0.434230 0.054847 0.278305 -1.309155 0.463382 0.509892 -0.009570 0.329609 0.429064 -0.045560 -1.047460 -0.023663 -0.212709 0.067580 -0.509497 -0.797551 -0.109181 -0.128442 0.462756 -0.602098 0.399388 0.146764 0.702621 -0.671958 0.161869 -0.234394 -0.392480 0.890276 -0.093546 -0.346252 0.426417 -0.584380 -0.473575 -1.028016 1.285869 0.074925 -1.354583 0.523168 0.484167 -0.490660 -0.486618 -0.638829 0.035679 -0.070464 -0.003848 -0.571751 0.866107 -0.032826 1.523233 0.660802 0.310225 0.165983 -0.311799 0.016450 -0.412327 0.267447 0.141225 -1.324491 -0.037941 -0.008113 0.243931 0.034429 0.697031 0.172099 -0.156753 -0.396636 -0.663259 -0.292170 0.051201 0.522974 -0.311761 -0.222620 -0.008576 0.853203 0.269634 -0.331152 -0.290205 0.918623 0.150846 -0.994560 -0.146549 0.026487 -0.340873 0.278115 0.512276 0.667330 -0.425037 -0.312177 -0.100860 0.045105 -0.110163 0.442173 -0.350064 -0.208336 0.480978 0.603555 -0.029249 0.249771 -1.079491 0.013959 0.210244 -0.632308 0.150072 0.187109 0.087521 0.769389 -0.306629 -0.201031 0.336843 0.151951 0.103283 -0.315842 -0.588830 -0.109705
one -1.598970 -1.332340 -1.460268 0.167539 2.095125 -2.033930 -0.853654 0.554297 -2.577704 0.355029 -0.194536 1.660752 0.366400 -0.367882 -0.102667 1.086518 0.317128 1.109653 1.806622 0.416138 -1.965458 -1.598093 -0.208534 -1.509508 -0.276070 -2.727680 0.211218 -0.730196 0.186978 0.834910 0.318877 -0.552856 -0.034351 2.920246 1.042298 -0.121155 -1.967863 0.049520 -0.293812 0.547492 -0.267055 -0.539903 2.614756 -1.283502 -0.148711 0.940361 -0.785346 -0.790911 0.401649 -0.147941 -0.598373 0.605505 -1.423326 0.383141 -1.474321 0.218419 -1.319836 0.183099 0.768268 2.277724 -0.120614 0.856911 0.231598 0.641104 -0.104244 0.388382 -2.000521 0.254412 -0.939847 0.594552 0.303293 -0.010795 -0.041768 -1.288934 -0.421844 1.037308 0.821504 -2.914527 -1.025116 -0.740291 -0.625771 -0.482433 -1.199116 1.642059 0.745704 0.491662 1.833829 -1.902818 0.556324 -1.328904 0.888726 0.462672 1.293748 2.119298 -0.540508 0.533583 4.136112 1.306892 2.166602 0.155641 1.611930 2.702821 -1.972373 -0.972643 0.102125 1.166481 0.422969 0.223270 -0.223120 -0.354765 0.363031 0.328365 2.322727 -0.559265 1.753796 0.147286 -1.142733 -2.416581 -0.948899 0.791930 0.689716 0.104299 1.372059 -1.148793 -1.003024 -1.143902 0.184100 -0.655284 -0.672709 -1.028052 0.239443 -0.467709 -0.751755 -0.482752 1.647389 -0.424060 -0.476858 1.043835 -0.350294 -0.865272 0.643372 -1.306036 0.941304 0.017552 -0.035716 0.147540 -0.788817 1.121647 -1.355898 0.785610 -0.077297 1.556934 -1.887421 -0.604783 0.086608 -0.152926 0.055810 0.166677 -0.133798 -1.303701 -0.795418 1.528314 -1.058932 0.114144 1.069524 0.309955 -0.105340 0.003356 -0.215000 -1.029555 -0.711240 1.018240 -0.982378 -0.150189 0.498510 0.727748 0.703785 -0.431508 0.902180 1.455477 -1.890062 2.091204 1.455698 0.187183 1.471119 1.315005 -2.294873 -0.621348 -0.311274 1.726444 1.548072 0.067819 -2.056108 -0.828295 0.493118 0.913908 0.290213 -0.839992 0.649498 0.011221
in -0.389918 1.009214 -0.168647 -0.338309 2.010848 -1.055646 -0.250810 -0.596338 0.314160 -0.721639 -0.092775 -0.750969 0.362484 0.294211 -0.180339 -0.055907 -0.360741 -0.962825 0.010521 -1.096933 0.298416 -1.034770 0.892745 0.363466 -0.595627 0.726744 1.993488 0.148081 -0.454196 -1.336290 -0.177509 -0.107883 -0.206820 -0.406709 0.805769 -0.698238 -0.836821 -1.286611 1.692252 -0.040555 -1.085212 -0.979179 0.445642 0.589739 0.628028 -0.389168 -0.040943 0.302103 -0.699053 0.250029 -0.329038 -0.572769 0.467059 -0.026907 -0.578785 0.211939 -0.805435 0.414374 0.458866 0.498030 -0.118581 -0.205426 0.153862 0.711765 1.033347 0.074495 -0.814330 -0.040992 -0.686961 0.277705 -1.589859 -0.184469 -0.263683 -1.245124 -1.297870 0.207550 -0.140478 0.148886 -0.698990 0.872002 1.133718 0.139006 -1.059988 -0.203379 0.223774 -0.363986 -0.599285 -0.619333 0.010561 -1.038457 0.916870 0.678015 0.797490 0.785488 1.241031 0.391192 -0.234488 0.210303 0.409117 0.498950 -0.475959 -0.305096 -0.620665 0.592922 0.377429 0.261449 0.663730 -0.030967 -0.422076 0.139063 0.897343 -0.157977 -0.691271 -0.113933 1.434874 -0.137436 -0.321770 -0.836788 1.535323 -0.219027 1.202285 -0.538143 -1.971926 -0.219871 0.312623 0.444665 -0.227425 -1.094180 1.071533 -0.311560 -0.262986 -0.272791 0.743808 0.875395 2.073196 0.781893 -0.028885 0.652391 0.375230 -0.341007 1.104072 1.461204 -0.325828 -1.648853 -0.120237 -0.115822 -0.712076 -0.089698 0.629475 0.540358 0.136035 -0.474736 0.426723 -0.031558 0.277905 0.758195 0.484348 0.825674 -0.563118 0.809125 -0.234992 -1.191709 -0.125409 0.286565 -0.060528 -0.202167 0.259990 0.847999 -1.681649 -0.219618 0.371231 0.454929 0.092442 0.805441 0.156711 0.222021 0.672150 -0.477522 0.268475 1.197471 0.044745 1.417459 0.282745 0.482555 -0.147548 0.508859 -0.770458 -0.691042 0.438166 1.141726 0.264761 0.144443 0.016459 -0.810348 -0.523210 0.944901 0.202248 0.312499 -0.418155 -0.078706
a 0.811773 -0.195992 0.185500 -0.096652 1.602723 0.373631 -0.694730 -0.906977 1.043128 -0.449366 -0.472196 -0.844886 -0.521044 0.871813 -0.156669 -0.639871 -1.525843 -0.355906 -1.313282 -0.907533 1.427383 0.966625 -0.848935 0.454356 -1.833365 1.232410 -0.563724 -1.511228 0.500784 -0.880889 0.272265 -0.267885 -0.246065 -1.675887 1.352805 -0.846959 -0.622187 -2.440629 -0.723048 -0.152548 0.017771 -0.199463 -1.011791 -0.107717 1.314442 0.023346 0.340516 0.546801 -0.438973 -0.522069 -0.729808 -0.497697 -0.028260 0.193949 0.359031 -1.083375 -1.895678 1.175239 0.143054 -0.102522 -0.513713 0.433188 -0.177401 0.392080 0.177155 0.028744 -0.225926 -0.044794 0.068644 -0.824727 -0.474806 -0.996826 1.020614 0.223472 -0.169652 0.793664 -0.546084 0.010777 1.196366 1.084663 0.902303 0.201280 0.399469 -1.585372 -0.746897 -0.812913 -0.771385 0.889968 -0.295075 0.224846 0.829073 0.613634 -1.405501 -1.225756 2.041745 -1.005426 -0.117026 0.074379 -1.892827 -0.264545 -0.588332 0.298789 0.325529 -0.048675 0.288527 -0.322092 0.313481 -0.957587 -0.630590 0.442367 0.652158 -1.458472 -1.169233 -0.263424 -0.088013 -0.062311 0.375290 0.959262 1.119279 -0.051332 0.399632 -0.044420 -1.084639 1.433798 0.892142 -1.456523 -0.702237 0.507522 0.694360 0.344062 0.372178 -0.006542 0.074037 1.200595 -1.640829 0.317625 -1.340932 0.288535 0.676574 -0.633959 0.454492 -0.812270 -0.986757 -0.842153 -1.103901 -0.033065 -1.008812 -1.104645 0.385658 1.356915 0.357284 0.555905 0.540393 -0.012175 0.057668 0.463454 -2.087790 0.842200 -0.144697 0.969183 0.222461 0.342608 0.847526 -1.105016 0.733612 -0.721156 -0.873899 0.821001 -1.222643 -0.554987 1.119107 0.864512 -0.243411 0.973753 1.157996 -0.546985 1.378436 0.609385 -0.601378 1.355654 0.207513 -0.226132 0.174255 0.465406 0.033672 0.218102 -0.507801 0.550131 0.837323 -0.241099 -1.182167 -0.470041 0.147275 -0.736373 -0.661420 -0.170564 0.746595 -1.032104 -0.478098 0.137617
