the 0.423481 0.369929 1.111249 0.013840 1.331685 -0.036856 0.136573 -1.160079 1.081410 -0.267557 1.072362 -0.662614 0.302431 0.729101 0.474247 0.278960 -0.280488 0.004319 -0.331027 -1.139855 0.873810 0.439595 0.012209 -0.578647 -1.497120 1.513142 1.548429 -1.184689 -0.129661 -1.157317 -1.173521 0.417770 0.280298 -0.871747 0.138689 -1.470589 -0.740268 -1.200067 0.553129 -0.028033 -0.764184 -0.895674 -0.441862 0.383504 1.000089 0.260861 0.749269 0.185020 0.131727 0.340547 -0.344766 -0.407601 -0.043519 0.290494 0.398504 -0.773131 -0.869276 0.266693 0.064334 0.090130 -0.648486 0.511872 -0.445843 0.597920 0.653623 -0.941519 -0.043308 -0.332342 0.172823 -0.698242 -1.847576 0.069881 0.012272 -0.735785 -0.784222 -0.828876 -0.456200 0.646002 0.693919 0.822569 1.368644 0.109617 0.463271 -0.603371 0.361129 0.161419 -0.743007 -0.019925 -0.080299 -1.114887 1.146786 -0.334220 -0.753947 -0.310419 1.578926 -0.085661 0.223148 0.394603 -1.498727 -0.148537 -0.365898 0.025269 0.021248 -0.314098 0.050202 0.054609 -0.277960 0.544278 -0.435334 -0.169918 0.483400 -0.983173 -0.221309 0.850029 0.327870 -0.368783 0.625249 0.683342 0.940899 -0.379885 1.062074 -0.161842 -1.961636 -0.147341 1.074315 -0.198932 -1.180118 -1.491377 1.270047 -0.638153 0.135226 -0.438000 0.706228 0.152204 1.549054 0.760666 -0.924413 1.205274 0.178499 -0.100179 -0.226805 0.709010 0.195869 -1.441875 0.378016 -0.277887 -0.584087 -0.373487 1.085315 0.065988 0.214293 0.187806 0.864823 0.163416 0.029375 0.453806 -0.739024 1.008111 -0.062418 0.996677 -0.653721 -0.414149 -0.163712 -0.440736 -0.201925 -1.024757 0.668899 0.898666 -1.385766 0.161593 0.940620 0.273511 -0.502011 0.256759 0.374460 0.230816 1.190675 0.061708 -0.645102 1.098487 0.370113 0.051426 1.280075 0.734996 1.056489 0.556695 -0.476943 -0.559041 0.795830 1.050507 -0.101864 -0.016859 0.361455 -0.641836 -0.702506 -0.300165 -0.174840 -0.124918 0.214492 -0.152847
of 0.347326 0.256732 0.978557 0.664598 1.915115 -0.152742 -0.077042 -0.315033 1.016435 -1.393754 -0.416958 0.021981 1.710629 0.864251 -0.399277 0.398133 0.101121 0.079282 -0.139161 -0.615228 1.299359 0.042341 0.474488 0.645718 -1.040032 1.395249 1.601676 -0.840413 -1.073437 -1.609714 -1.197873 0.998504 -0.227110 -0.924611 -0.254570 -1.151173 -1.145831 -1.504837 0.667648 -0.059846 0.266880 -1.178244 -1.238701 1.354323 0.076703 -0.367869 0.078205 0.777750 0.067474 0.748478 -0.139588 -0.022192 -0.473571 0.695823 0.715945 0.269474 -0.390407 0.718708 1.127631 -0.194451 -1.205972 -0.260799 -1.477016 0.532387 0.154505 -1.375419 0.207630 -0.838946 -0.470087 -0.205306 -2.636642 -0.028259 -0.198958 -1.021826 -0.405941 -0.391061 -0.366775 0.166835 0.755161 0.856733 1.066193 0.737525 -0.035915 -0.770104 -0.270519 0.665386 -0.559645 -0.424040 -0.294943 -1.282766 1.474055 -0.097383 -0.867188 0.799338 1.083010 -0.421800 -0.790136 -0.660116 -1.080335 0.456340 -0.449247 -0.237850 -0.235273 0.362039 0.528574 -0.821794 -0.966689 0.448742 -0.866953 0.372427 0.662549 0.075496 -0.093711 0.148170 0.370611 0.076506 -0.156174 -0.584489 -1.209938 1.023793 1.343036 -0.414471 -1.593594 -0.083708 0.948680 -0.567545 -0.915469 -1.180705 0.402490 -0.013225 0.060949 0.145903 1.101282 0.336173 1.226937 0.454223 -0.927545 0.192356 0.376562 -0.126052 -0.553591 0.637954 0.881756 -1.020960 -0.086503 -0.617522 -0.150303 -0.917751 1.336410 0.147632 -0.439876 0.335380 -0.001045 0.102398 0.295097 -0.376770 -0.826811 0.443528 -1.051907 0.398027 -0.733468 -0.142141 -0.159924 1.172444 0.080756 -1.166991 0.413222 1.088896 -0.958838 1.361944 1.607168 0.000364 -0.329571 0.183091 0.579798 0.821566 0.078850 -0.463960 -0.118367 0.798666 0.058547 0.807378 0.954146 0.660595 1.037413 0.027089 -0.387917 -1.003190 0.846678 0.136757 0.127639 -0.008331 0.144783 -1.405822 -0.188766 0.498547 -0.031739 0.051859 0.156524 -0.132912
and 0.147369 1.221511 0.757800 0.480953 0.226658 -0.025788 -0.055247 0.382118 -0.413325 -1.231623 0.289430 -0.096735 0.391993 0.185426 0.025673 0.319435 -1.039799 -0.701012 -0.657406 -1.061504 0.297229 -0.238879 0.861579 0.896845 0.011265 0.545350 0.810166 0.000069 -0.614768 -0.462176 -0.670004 -0.095376 -0.000337 -0.696741 -0.019944 -0.245736 -0.218187 0.164963 0.698945 0.167969 -0.704835 -0.659717 -0.891806 0.783196 -0.045653 -0.455863 -0.681985 1.192346 -0.081389 -0.331664 0.142657 0.228637 -0.294870 0.803589 0.174354 0.013952 0.326803 0.815193 -0.515618 0.243344 -0.824895 0.348210 -0.459551 -0.006290 -0.511539 -0.721134 0.358636 0.096647 -0.886414 0.386325 -1.120075 0.373366 0.217576 -0.294054 -0.370156 -0.389886 -0.312941 0.751838 0.060697 1.033488 1.127014 -0.163397 -0.043054 -0.432478 0.505130 0.591029 -0.434230 0.054847 0.278305 -1.309155 0.463382 0.509892 -0.009570 0.329609 0.429064 -0.045560 -1.047460 -0.023663 -0.212709 0.067580 -0.509497 -0.797551 -0.109181 -0.128442 0.462756 -0.602098 0.399388 0.146764 0.702621 -0.671958 0.161869 -0.234394 -0.392480 0.890276 -0.093546 -0.346252 0.426417 -0.584380 -0.473575 -1.028016 1.285869 0.074925 -1.354583 0.523168 0.484167 -0.490660 -0.486618 -0.638829 0.035679 -0.070464 -0.003848 -0.571751 0.866107 -0.032826 1.523233 0.660802 0.310225 0.165983 -0.311799 0.016450 -0.412327 0.267447 0.141225 -1.324491 -0.037941 -0.008113 0.243931 0.034429 0.697031 0.172099 -0.156753 -0.396636 -0.663259 -0.292170 0.051201 0.522974 -0.311761 -0.222620 -0.008576 0.853203 0.269634 -0.331152 -0.290205 0.918623 0.150846 -0.994560 -0.146549 0.026487 -0.340873 0.278115 0.512276 0.667330 -0.425037 -0.312177 -0.100860 0.045105 -0.110163 0.442173 -0.350064 -0.208336 0.480978 0.603555 -0.029249 0.249771 -1.079491 0.013959 0.210244 -0.632308 0.150072 0.187109 0.087521 0.769389 -0.306629 -0.201031 0.336843 0.151951 0.103283 -0.315842 -0.588830 -0.109705
one -1.598970 -1.332340 -1.460268 0.167539 2.095125 -2.033930 -0.853654 0.554297 -2.577704 0.355029 -0.194536 1.660752 0.366400 -0.367882 -0.102667 1.086518 0.317128 1.109653 1.806622 0.416138 -1.965458 -1.598093 -0.208534 -1.509508 -0.276070 -2.727680 0.211218 -0.730196 0.186978 0.834910 0.318877 -0.552856 -0.034351 2.920246 1.042298 -0.121155 -1.967863 0.049520 -0.293812 0.547492 -0.267055 -0.539903 2.614756 -1.283502 -0.148711 0.940361 -0.785346 -0.790911 0.401649 -0.147941 -0.598373 0.605505 -1.423326 0.383141 -1.474321 0.218419 -1.319836 0.183099 0.768268 2.277724 -0.120614 0.856911 0.231598 0.641104 -0.104244 0.388382 -2.000521 0.254412 -0.939847 0.594552 0.303293 -0.010795 -0.041768 -1.288934 -0.421844 1.037308 0.821504 -2.914527 -1.025116 -0.740291 -0.625771 -0.482433 -1.199116 1.642059 0.745704 0.491662 1.833829 -1.902818 0.556324 -1.328904 0.888726 0.462672 1.293748 2.119298 -0.540508 0.533583 4.136112 1.306892 2.166602 0.155641 1.611930 2.702821 -1.972373 -0.972643 0.102125 1.166481 0.422969 0.223270 -0.223120 -0.354765 0.363031 0.328365 2.322727 -0.559265 1.753796 0.147286 -1.142733 -2.416581 -0.948899 0.791930 0.689716 0.104299 1.372059 -1.148793 -1.003024 -1.143902 0.184100 -0.655284 -0.672709 -1.028052 0.239443 -0.467709 -0.751755 -0.482752 1.647389 -0.424060 -0.476858 1.043835 -0.350294 -0.865272 0.643372 -1.306036 0.941304 0.017552 -0.035716 0.147540 -0.788817 1.121647 -1.355898 0.785610 -0.077297 1.556934 -1.887421 -0.604783 0.086608 -0.152926 0.055810 0.166677 -0.133798 -1.303701 -0.795418 1.528314 -1.058932 0.114144 1.069524 0.309955 -0.105340 0.003356 -0.215000 -1.029555 -0.711240 1.018240 -0.982378 -0.150189 0.498510 0.727748 0.703785 -0.431508 0.902180 1.455477 -1.890062 2.091204 1.455698 0.187183 1.471119 1.315005 -2.294873 -0.621348 -0.311274 1.726444 1.548072 0.067819 -2.056108 -0.828295 0.493118 0.913908 0.290213 -0.839992 0.649498 0.011221
in -0.389918 1.009214 -0.168647 -0.338309 2.010848 -1.055646 -0.250810 -0.596338 0.314160 -0.721639 -0.092775 -0.750969 0.362484 0.294211 -0.180339 -0.055907 -0.360741 -0.962825 0.010521 -1.096933 0.298416 -1.034770 0.892745 0.363466 -0.595627 0.726744 1.993488 0.148081 -0.454196 -1.336290 -0.177509 -0.107883 -0.206820 -0.406709 0.805769 -0.698238 -0.836821 -1.286611 1.692252 -0.040555 -1.085212 -0.979179 0.445642 0.589739 0.628028 -0.389168 -0.040943 0.302103 -0.699053 0.250029 -0.329038 -0.572769 0.467059 -0.026907 -0.578785 0.211939 -0.805435 0.414374 0.458866 0.498030 -0.118581 -0.205426 0.153862 0.711765 1.033347 0.074495 -0.814330 -0.040992 -0.686961 0.277705 -1.589859 -0.184469 -0.263683 -1.245124 -1.297870 0.207550 -0.140478 0.148886 -0.698990 0.872002 1.133718 0.139006 -1.059988 -0.203379 0.223774 -0.363986 -0.599285 -0.619333 0.010561 -1.038457 0.916870 0.678015 0.797490 0.785488 1.241031 0.391192 -0.234488 0.210303 0.409117 0.498950 -0.475959 -0.305096 -0.620665 0.592922 0.377429 0.261449 0.663730 -0.030967 -0.422076 0.139063 0.897343 -0.157977 -0.691271 -0.113933 1.434874 -0.137436 -0.321770 -0.836788 1.535323 -0.219027 1.202285 -0.538143 -1.971926 -0.219871 0.312623 0.444665 -0.227425 -1.094180 1.071533 -0.311560 -0.262986 -0.272791 0.743808 0.875395 2.073196 0.781893 -0.028885 0.652391 0.375230 -0.341007 1.104072 1.461204 -0.325828 -1.648853 -0.120237 -0.115822 -0.712076 -0.089698 0.629475 0.540358 0.136035 -0.474736 0.426723 -0.031558 0.277905 0.758195 0.484348 0.825674 -0.563118 0.809125 -0.234992 -1.191709 -0.125409 0.286565 -0.060528 -0.202167 0.259990 0.847999 -1.681649 -0.219618 0.371231 0.454929 0.092442 0.805441 0.156711 0.222021 0.672150 -0.477522 0.268475 1.197471 0.044745 1.417459 0.282745 0.482555 -0.147548 0.508859 -0.770458 -0.691042 0.438166 1.141726 0.264761 0.144443 0.016459 -0.810348 -0.523210 0.944901 0.202248 0.312499 -0.418155 -0.078706
a 0.811773 -0.195992 0.185500 -0.096652 1.602723 0.373631 -0.694730 -0.906977 1.043128 -0.449366 -0.472196 -0.844886 -0.521044 0.871813 -0.156669 -0.639871 -1.525843 -0.355906 -1.313282 -0.907533 1.427383 0.966625 -0.848935 0.454356 -1.833365 1.232410 -0.563724 -1.511228 0.500784 -0.880889 0.272265 -0.267885 -0.246065 -1.675887 1.352805 -0.846959 -0.622187 -2.440629 -0.723048 -0.152548 0.017771 -0.199463 -1.011791 -0.107717 1.314442 0.023346 0.340516 0.546801 -0.438973 -0.522069 -0.729808 -0.497697 -0.028260 0.193949 0.359031 -1.083375 -1.895678 1.175239 0.143054 -0.102522 -0.513713 0.433188 -0.177401 0.392080 0.177155 0.028744 -0.225926 -0.044794 0.068644 -0.824727 -0.474806 -0.996826 1.020614 0.223472 -0.169652 0.793664 -0.546084 0.010777 1.196366 1.084663 0.902303 0.201280 0.399469 -1.585372 -0.746897 -0.812913 -0.771385 0.889968 -0.295075 0.224846 0.829073 0.613634 -1.405501 -1.225756 2.041745 -1.005426 -0.117026 0.074379 -1.892827 -0.264545 -0.588332 0.298789 0.325529 -0.048675 0.288527 -0.322092 0.313481 -0.957587 -0.630590 0.442367 0.652158 -1.458472 -1.169233 -0.263424 -0.088013 -0.062311 0.375290 0.959262 1.119279 -0.051332 0.399632 -0.044420 -1.084639 1.433798 0.892142 -1.456523 -0.702237 0.507522 0.694360 0.344062 0.372178 -0.006542 0.074037 1.200595 -1.640829 0.317625 -1.340932 0.288535 0.676574 -0.633959 0.454492 -0.812270 -0.986757 -0.842153 -1.103901 -0.033065 -1.008812 -1.104645 0.385658 1.356915 0.357284 0.555905 0.540393 -0.012175 0.057668 0.463454 -2.087790 0.842200 -0.144697 0.969183 0.222461 0.342608 0.847526 -1.105016 0.733612 -0.721156 -0.873899 0.821001 -1.222643 -0.554987 1.119107 0.864512 -0.243411 0.973753 1.157996 -0.546985 1.378436 0.609385 -0.601378 1.355654 0.207513 -0.226132 0.174255 0.465406 0.033672 0.218102 -0.507801 0.550131 0.837323 -0.241099 -1.182167 -0.470041 0.147275 -0.736373 -0.661420 -0.170564 0.746595 -1.032104 -0.478098 0.137617
to -0.459782 0.728106 0.840232 -0.543001 0.034373 0.099063 0.230400 -1.879655 0.655466 -1.422488 -0.350555 -0.475957 -1.318472 0.714343 1.274044 0.618227 -0.147646 0.773924 -1.969050 -2.156434 3.985396 1.642831 -0.315603 -0.296116 -1.861612 0.802427 -0.025453 -0.514401 -0.237932 -0.998118 -0.968152 -0.289669 0.134857 -0.925203 -1.212077 0.277236 0.562857 -0.625858 -0.060861 -1.657451 -0.769534 -0.029868 -0.660580 0.359230 -1.105452 0.364801 -0.609835 0.965834 -1.595616 -0.276800 -0.033294 -0.208001 0.329077 -0.384501 -0.221803 -0.823509 -0.370814 0.317456 -1.634104 -2.064697 0.003054 0.037896 0.754655 -0.095739 -0.117442 -0.196756 -0.541836 0.468120 0.240021 -0.988149 0.830555 1.348423 0.076995 -0.087519 -0.027655 -1.196960 -2.122105 0.788477 -0.140553 1.929524 0.631649 -2.007905 -0.761857 -1.688570 0.395931 0.607853 -1.480939 0.864262 1.075593 -0.332605 1.058795 -0.770122 -0.906690 -1.610144 2.534450 0.589693 0.359408 0.055521 -0.762572 -0.840506 -1.216496 -1.074834 0.941468 -0.438693 0.444041 -1.527417 -1.361635 0.917799 0.740371 0.199692 0.088199 -0.168545 -1.434859 1.193760 -0.907028 -0.715755 1.594940 1.251947 2.233071 -3.400182 0.712855 0.040147 -2.558473 0.303331 0.351664 1.327970 -0.905647 -0.448724 0.980172 -0.063221 1.395071 0.047295 0.214596 1.924175 -0.361919 1.646720 1.273034 1.108087 1.059915 -0.321007 -0.369256 1.687978 -0.794884 -1.311735 0.419285 -1.037499 -0.613862 -0.634132 0.408591 1.575695 0.540257 1.322142 1.167853 0.434420 0.626989 1.562914 -1.203025 1.226546 0.707279 0.794863 0.613060 -1.363614 -1.764970 -0.260826 0.233639 -2.327623 0.038763 0.579918 -1.589864 -1.279479 0.283429 -0.205191 -0.540575 0.064266 -0.865825 -1.552286 1.294435 1.478053 0.513382 0.336689 0.725515 -0.543344 0.335764 0.301455 0.251694 -1.341391 1.757526 0.673544 1.124243 2.221242 -1.031352 0.605449 2.085337 0.376271 -0.547162 -0.400051 -1.288481 -0.014899 -0.831295 -0.529621
zero -1.301916 -0.646893 -1.469041 -0.655487 1.920987 -1.468047 -0.186257 2.288953 -1.863574 0.156732 0.432159 1.189348 0.972261 -0.297742 0.288980 0.838207 -0.236031 0.781786 0.862486 0.697442 -0.607085 -2.061106 -1.176282 -2.018323 1.240833 -2.105585 0.362294 -0.167117 -0.284633 1.215618 0.467413 -1.021556 0.481395 2.909820 0.733079 -0.454029 -2.461177 1.578489 -1.136984 0.033505 -1.082621 -0.841876 3.881967 -1.191291 0.235617 1.040057 -0.032926 -0.785360 -0.395750 0.729792 -0.464768 0.438428 -1.764285 -0.042624 -0.867009 1.690369 -1.265879 -0.116094 -0.246948 2.636789 -0.712409 0.527658 1.057639 2.221668 0.047807 0.101694 -2.085392 1.087302 -0.068992 1.670215 0.709480 0.016233 -0.995821 -1.453091 -0.699905 1.326558 0.387315 -2.133542 -0.143612 -1.157000 -2.250090 0.034845 0.199623 1.015745 0.813654 0.463940 1.482571 -2.660554 -0.263024 -0.362964 1.684443 0.149342 0.728618 1.792705 -0.863989 0.228277 2.944998 1.980815 2.023468 0.793329 1.373005 1.024992 -1.650156 0.045930 -0.657508 0.354851 1.248814 1.008446 0.162162 0.061168 0.419913 -0.469237 2.538995 0.066465 1.628710 -0.285682 -0.425541 -1.393874 -1.341746 0.894864 0.056350 0.198402 1.557502 0.040692 -1.393994 -0.209236 0.793396 0.448765 -0.838683 -0.556444 0.593540 -0.862207 0.602578 1.533689 2.234837 0.354901 -0.377581 1.194447 -0.374235 -1.961338 -0.605157 -1.898944 0.547047 1.399094 0.116089 -1.727747 0.943344 1.564500 -1.262887 -0.034307 0.308621 2.656650 -2.167165 0.222485 0.624644 0.753106 -0.574996 1.559445 -0.196355 -1.866385 -0.259235 0.361711 -2.114589 1.567068 -1.968864 1.009518 0.245008 1.206058 -1.244382 -2.119206 -1.023542 0.017319 -0.949487 -0.258233 1.598141 -0.228140 1.978602 -0.121720 1.238227 2.265302 -0.741899 3.281813 1.075828 0.250245 1.753595 0.855618 -2.196342 -0.769378 -0.218691 1.039516 1.093230 0.362722 -2.074829 -0.514673 -0.222946 2.003166 0.057858 -1.072784 0.664020 0.657572
nine -1.048448 -1.531145 -1.600431 -0.134352 1.804903 -2.538509 -0.584218 1.266855 -2.719377 0.456878 -0.052353 1.780390 1.174398 -0.086871 -0.101689 1.093097 0.854150 0.334139 1.299336 0.666941 -3.451188 -1.836933 -0.021351 -1.328368 -0.262574 -2.598863 0.283933 -0.112762 0.403284 0.965979 0.438513 -1.425089 0.455270 4.214800 1.033449 -0.247687 -1.890987 0.080649 -0.832150 0.260083 -0.958061 0.602230 2.704564 -0.991409 0.361516 1.376080 -0.704181 -0.922493 0.042163 0.009748 -1.286302 1.130370 -1.774084 0.723241 -1.710489 0.201808 -1.416724 -0.247112 0.378199 2.573044 -0.517779 1.726688 0.658852 0.661372 -0.356167 0.486310 -2.017993 0.271927 -1.369675 0.882287 0.742677 -0.799812 -0.842427 -1.103262 0.091996 1.176236 1.321753 -2.846646 -0.810816 -1.354127 -0.521949 -0.056937 -1.897301 1.821998 1.374859 0.052246 2.235097 -1.935348 0.393534 -1.303619 1.059802 1.263053 2.445215 2.478229 -1.374467 1.804932 4.415669 1.145064 2.319805 0.482316 1.537765 3.434387 -2.151104 -0.558628 0.619999 0.788402 1.056910 -0.618475 -0.165665 0.005687 -0.428695 0.099129 2.348217 -0.994042 2.236766 -0.612961 -0.548900 -2.404681 -0.241276 0.008652 0.337842 0.196792 0.976698 -1.380461 -1.434122 -1.320516 0.150905 -0.869575 -0.708313 -1.427225 -0.696253 -1.658834 -1.258825 -0.967154 1.621634 -0.152275 -0.775873 0.555502 -0.870191 -1.071415 1.355110 -1.427684 0.541339 -0.071197 0.195704 -0.125290 -0.266921 1.641282 -1.364201 0.411157 0.043223 1.631273 -2.660164 -0.556025 0.465812 -0.372641 0.487250 0.173142 0.283004 -1.931523 -0.481772 2.070500 -0.727460 0.527512 1.565107 0.270408 0.144250 -0.325324 0.163257 -0.822179 -0.523863 1.382845 -1.714858 -0.738908 0.246759 1.486481 0.897776 -0.253207 1.218919 0.903180 -1.884057 2.944128 0.810287 -0.319769 1.546271 1.516448 -2.974732 -0.811279 -0.755360 2.517930 2.129828 0.036022 -2.677155 -0.286639 1.105462 1.299667 -0.547291 -1.180929 0.795391 0.343884
two -1.580938 -1.124753 -1.135831 -0.565141 2.886962 -1.817659 -0.773482 1.412877 -1.975458 -0.196323 0.106287 0.804100 1.096807 0.258413 0.008027 0.747801 -0.241046 0.301375 1.086292 0.577323 -1.153166 -1.622191 -0.534676 -1.645437 -0.065140 -2.401993 0.178589 -0.598625 -0.409370 0.520042 0.238335 -0.449933 0.432181 2.824170 1.268255 -0.259799 -1.935420 0.895879 -0.746177 0.476931 -0.266808 -0.821308 2.692896 -1.174510 0.348680 0.634912 -0.257181 -1.107633 0.041523 0.201356 -0.659074 0.765460 -2.309180 0.281994 -0.176409 0.585642 -0.943073 0.032239 -0.046312 1.858233 -0.991948 0.542441 0.391953 1.557016 0.188381 0.284691 -2.505835 0.603637 -0.378420 1.229156 0.730421 0.138718 -0.068610 -1.640336 -0.332482 0.498138 0.556786 -2.746974 -0.412851 -1.081648 -1.294379 -0.852773 -0.123927 1.336372 0.216092 0.369698 1.096630 -2.773553 0.450256 -0.502697 1.297850 0.893856 0.556633 1.917040 -0.345378 -0.330505 2.401907 1.395411 1.703012 0.230601 1.732932 0.944842 -1.437566 -0.668177 -0.043695 0.267191 0.613601 0.715638 0.132287 -0.516580 0.890248 -0.215116 1.623592 -0.038213 1.550940 0.601207 -1.147262 -1.622371 -1.231822 1.239392 0.559299 0.430180 1.545102 -0.432748 -1.194786 0.043333 0.171778 0.321037 -0.833962 -0.570045 0.740021 -0.395194 -0.139241 1.286053 1.897248 0.525531 0.365694 1.159809 -1.034527 -1.304345 0.075941 -1.904047 0.951367 0.294972 0.159001 -0.927419 0.018448 1.134438 -1.273757 0.035804 -0.021076 2.443431 -2.021838 -0.535678 0.333921 0.939094 -0.318138 0.667227 0.642254 -1.325141 -0.815636 0.847338 -1.759315 1.252477 -0.668718 0.648618 -0.134395 0.633704 -0.795520 -1.446215 -0.701312 0.039419 -0.963682 0.204553 0.934173 0.326645 1.777511 -0.205781 0.750469 1.819778 -1.226601 2.520310 1.734861 0.804377 1.536570 0.903908 -2.305279 -0.534070 -0.241361 1.639731 0.844665 -0.205460 -1.473693 -0.590935 0.578275 1.803624 0.711040 -0.178467 0.595241 0.519523
is 1.577187 -0.786630 -0.717814 -0.028564 -0.269638 1.253565 -1.237536 -2.907429 2.068581 -0.255980 -1.029562 -2.023990 -0.244313 0.123701 -0.096196 -0.376880 0.273218 0.412295 0.779575 0.219595 1.468974 -0.164599 -1.418399 -0.195856 0.128510 1.257070 0.064751 -0.721959 -1.365965 -2.931094 -1.092722 0.800635 0.493751 -2.369262 -0.077053 -1.156993 -0.439008 -0.783004 0.602841 0.472854 -0.738127 -0.652883 -0.541963 0.282254 0.552990 0.157878 0.193487 0.854883 -1.462351 -0.825487 0.086201 -2.392059 0.116797 0.268734 2.071305 -1.453579 -2.028998 -0.622470 1.249997 0.896614 0.806603 1.016792 -1.435573 0.292377 0.631702 0.983782 0.243188 -0.593720 2.132143 -1.767325 -0.583690 -0.641083 0.470667 -0.967427 -0.761227 0.014601 1.010799 0.518968 1.162680 0.276816 -1.336219 -0.048430 1.098143 -0.278996 -0.719724 -0.734645 -1.283381 -0.449983 -2.594491 1.286628 1.977943 -0.734946 -1.539952 -1.722819 1.284370 -1.061471 -3.104800 0.167579 -2.308835 -1.961424 -1.795610 -2.772033 0.646693 1.581417 -1.668189 -1.257574 0.474632 -1.098195 -1.495531 0.186328 2.405608 -2.372766 -0.522728 -1.375053 -0.495657 -0.065539 -0.687362 1.739885 2.428421 -0.124552 0.406066 0.651992 0.925644 0.638672 0.554047 -0.569453 0.503550 -0.946549 -0.405810 0.843231 1.131773 1.995280 1.028015 1.039078 -1.242388 0.008004 -1.721505 0.022614 0.542596 -1.476758 -0.930751 -1.560426 -1.593076 -1.269570 -1.349689 -2.306779 -2.739764 -2.345541 0.037972 1.098462 0.158936 -0.619088 0.490925 -1.458390 0.064922 0.807412 -1.515409 0.517405 -0.555617 0.672767 -0.683666 -0.585425 -0.281580 -0.529171 -0.678380 1.418263 -0.130770 2.667938 -1.615352 1.772472 1.193455 1.378780 0.405878 0.222447 1.180462 0.505988 0.022624 -0.037561 -1.777455 1.015791 -0.675550 -2.007449 -0.039601 1.051479 -0.741937 1.272942 0.958186 0.464354 0.658266 0.419178 -0.515752 0.008036 1.239151 -0.139762 -0.351339 0.609020 1.311573 1.124913 -0.102797 -0.225741
as 1.884130 -0.512024 -1.016086 1.069261 0.853773 0.083905 0.499564 -0.538454 0.543041 -0.607265 0.745576 -0.669241 0.659570 1.763101 0.799760 -0.733942 -0.458297 -0.792153 0.418152 -1.289496 0.928488 0.039194 0.037036 -0.345137 -0.478503 0.244164 0.879297 -0.693172 -1.765547 -1.991218 0.086053 0.696570 0.069392 -2.623810 1.273829 -0.454262 1.642612 -1.182047 -0.126857 0.340056 -1.314447 -1.795266 -1.247474 1.374434 0.600868 -2.027550 0.287806 1.167163 0.032889 -1.366086 0.416008 -0.539608 0.576250 0.432797 -0.157502 -0.382459 -0.962515 0.956563 -0.991745 -0.207175 -0.146922 -0.407129 0.750687 0.023450 -0.363795 1.135750 0.464773 -0.488125 0.390506 -1.020410 0.271106 -0.562764 1.171221 -0.933510 -0.072399 0.745173 -0.434198 1.224571 -0.015142 0.498941 0.020547 -0.857986 -0.743792 0.054605 0.184945 -1.109560 -0.732869 0.292520 0.086078 -0.083055 0.066774 -1.304323 -0.156199 -1.018332 0.777938 -0.285655 -1.480950 -1.025910 -1.868763 -1.873072 -1.482786 -1.695087 -0.147622 0.686474 0.306741 -0.136609 1.018020 -0.646176 0.466568 -0.001114 -0.299330 -0.024970 -1.598970 0.146836 0.660997 0.523315 0.835338 0.922833 0.196354 -0.231743 1.857739 -1.199056 -3.022931 -0.181929 0.711629 -0.190428 -0.837836 -2.138575 0.166669 0.727705 0.120637 0.570343 1.363060 0.167163 0.054957 -0.352360 0.594496 -0.919331 -0.569308 0.089598 1.215129 -0.363189 0.070753 -1.623058 -0.933250 0.455416 -1.360271 -0.492103 0.874537 1.214412 0.893337 -1.354429 -0.237469 -0.119749 -0.307224 0.340432 -1.648207 -0.568439 0.053243 2.354872 0.365736 -0.678130 -0.290808 0.733516 0.372108 -0.640031 0.728156 1.223869 -0.509778 0.844763 1.146213 -0.488941 -0.423721 -0.966745 0.213004 -1.286413 0.471575 1.869120 -2.378759 0.883052 1.796512 -0.100513 -0.781089 -0.643290 -1.256676 0.650179 0.694644 -0.161190 1.882328 -0.310489 0.292191 0.694833 1.133148 -0.283866 0.677369 -1.411772 0.986319 -0.123227 -1.297323 -1.065605
eight -2.008129 -1.300395 -1.436226 0.427605 1.780778 -2.168442 -1.323943 1.276377 -3.036481 0.484553 -0.230863 1.836400 0.851397 -0.295085 -0.859116 1.354133 0.111108 1.038371 2.094754 0.818911 -1.884167 -1.843627 -0.732326 -1.233881 0.268243 -3.361605 0.471984 -0.881237 -0.305681 0.682998 0.381304 -0.455806 -0.331382 3.104078 0.509408 0.439016 -1.694505 0.212163 -0.678369 0.766178 -0.531959 -0.606410 2.972395 -1.259170 0.020444 1.487222 -0.712747 -0.571622 0.113868 -0.089345 -0.368482 0.731933 -1.481051 0.707572 -1.885604 0.734516 -1.769859 -0.562602 0.447593 2.772954 -0.290943 1.078183 -0.141857 0.625125 -0.952107 0.171764 -1.904590 0.626591 -1.599903 0.306969 0.473870 -0.117893 -0.518353 -1.359195 -0.550552 0.860088 0.739701 -2.639128 -1.530573 -0.939116 -0.696084 -0.424691 -2.045056 1.806149 0.712713 1.085188 1.816071 -2.094959 0.821405 -1.648373 0.850927 0.729478 1.210810 2.366468 -0.615102 0.748629 3.984450 1.461738 2.990179 0.385321 1.533285 3.055532 -1.687359 -1.106883 0.595562 1.334616 0.440781 0.769193 0.054438 -0.201748 0.150848 0.204947 2.357668 -0.745511 1.757313 -0.286775 -1.386817 -2.719382 -0.982562 0.657099 0.944958 0.247072 1.749902 -1.544256 -0.945680 -1.777591 0.689527 -0.841781 -0.828137 -1.229502 0.203653 -1.068912 -1.267247 -0.974800 1.248306 -0.353662 -0.557176 0.349237 -0.397957 -1.011039 1.047647 -0.929911 0.642185 0.177668 -0.139270 0.452077 -0.161373 1.384002 -0.942525 0.535378 0.373614 1.598135 -2.259603 -0.455648 0.364387 -0.630586 -0.082790 0.473842 -0.135206 -1.753025 -1.016184 1.533439 -0.607125 -0.084612 1.205075 0.279663 -0.686017 -0.949084 -0.066605 -0.829945 -1.045271 1.296601 -1.156344 -0.630362 0.303095 0.440180 0.801031 -0.288002 0.961879 1.686358 -1.929097 1.996000 1.430053 0.300437 1.416271 1.206756 -2.717847 -0.841183 -0.213708 1.551893 2.009205 0.427127 -2.550066 -1.092845 0.651585 1.274212 0.457908 -0.108021 0.547437 0.098762
for 0.775283 -0.344240 0.752699 0.217015 1.810413 0.109992 -1.285913 0.623057 1.393950 -2.351802 -0.231840 0.082725 0.576285 -0.402121 1.234179 -0.247595 0.167158 -1.968830 -1.705984 -2.020538 1.231087 1.059832 0.566954 0.764139 -0.995253 0.231306 -0.318399 0.503275 -0.321438 -0.823503 0.034524 -0.861277 0.103503 -0.935788 1.386991 0.363260 0.011976 -0.674662 -0.114331 -0.241013 -0.529353 1.799408 -1.305451 2.375837 -1.134350 -1.105899 -0.119113 0.466832 0.032218 -0.129508 0.759578 -0.412963 -0.427269 0.081036 0.483784 0.216691 -0.704258 1.012639 -0.060344 0.555781 -0.879641 0.791666 -0.501186 0.123376 0.683476 0.386304 -0.428399 -0.637466 -1.223938 -0.283461 -0.433817 -0.094145 0.293393 -0.194029 -1.284723 0.098140 -1.686983 0.218522 1.044618 -0.600584 0.269396 -0.740556 -0.325347 -1.538626 -0.295636 0.116056 -0.978587 0.927255 -1.767200 0.686664 -0.921714 -0.881235 -0.481257 -1.488515 0.907992 0.683334 -1.070946 -0.567745 -0.705921 0.482889 -0.429424 -0.601284 -0.724370 0.951759 -0.322095 -1.535881 -0.266183 -0.319047 -0.255308 -0.218412 1.340485 -0.420965 -1.796754 0.743424 1.053497 -0.369757 1.499810 0.362979 -1.296282 -0.099570 1.657082 -0.994724 -0.756316 2.096258 1.403995 0.374146 -0.275201 -0.028313 0.235953 -0.253106 1.253334 0.094384 -0.085910 0.262808 -0.741396 0.793402 0.367191 0.636053 0.180596 -0.432174 -0.097742 -0.569969 0.719202 -1.582714 0.258720 -2.313649 -1.817541 -0.677429 1.039811 1.476331 0.097932 -1.082676 0.677125 -0.224797 -0.234470 1.807262 -0.157489 -0.462111 -0.617657 0.144516 -1.137950 -0.788398 -0.694356 0.764720 0.162629 -0.096940 0.354390 1.597904 -2.062642 -0.259169 0.893784 0.055644 -0.861396 0.399316 -0.095099 -1.497912 0.261853 0.414200 -0.113851 1.458126 -0.302548 1.342418 -0.226346 -0.117444 -0.089460 -0.817301 -0.336940 -0.695873 0.447234 1.123762 0.108872 0.599433 1.082491 -0.856696 -0.478983 0.346330 1.187662 0.819890 -0.222698 -0.050682
s 1.136657 -1.233015 0.332313 -0.125827 1.444482 -0.737824 0.986927 -0.067871 -0.886505 -0.864238 0.145823 -0.022050 -0.259957 0.798209 0.155551 -0.460683 1.197668 0.600324 0.153510 -0.315584 -0.767737 -0.692904 -0.324895 -1.224268 0.084300 0.318227 0.601681 -0.001221 0.812466 -0.398294 0.583707 -1.095173 0.702772 0.126504 0.084121 -1.423468 -0.853730 -1.968493 -0.669753 -1.045757 -1.135184 -0.292500 -0.068743 0.252613 0.511852 0.379425 0.279844 0.677362 0.337264 -0.004634 -1.340590 1.134152 -0.566367 0.620649 -0.925997 0.083094 -0.576714 0.647263 1.101610 0.587867 0.246468 2.341556 -0.190663 -0.065507 -0.355076 -0.895669 0.137802 0.012085 -1.238241 -0.039214 -0.008213 -0.309017 -0.462042 -1.552026 -0.588023 -0.063150 0.129201 0.169696 -0.390007 -0.561159 1.789590 1.232712 -0.837385 0.171463 1.474365 -0.081944 -0.280023 -0.633935 0.898437 -0.688504 1.603459 0.922693 1.308609 0.129249 -0.437757 1.864129 0.990149 -0.788853 -1.202179 1.467674 -0.444145 0.386227 -0.579810 0.595464 0.963948 -1.044297 -0.462893 -0.416600 0.703178 0.004838 -0.840514 -0.151786 0.836954 0.579410 0.446079 -0.246291 0.670440 -0.285931 0.367899 -1.048032 1.347692 -0.610516 -0.100075 -0.952920 -0.261830 -1.610057 -0.753221 -0.443705 -0.368389 0.665040 -0.539999 -0.375271 -0.166496 -0.779373 0.564956 0.253610 -1.041796 1.330991 -0.561070 -0.185555 0.835918 -0.210619 0.464690 -0.225862 -0.241540 0.153802 -0.495327 0.500957 1.076398 0.771335 -0.466075 0.086560 -0.865740 0.475790 -0.600393 -0.227604 -0.612789 2.334404 -0.648125 0.236472 -0.885324 -1.187313 1.050833 0.209682 1.064471 -0.168486 -0.186278 0.776787 -0.529990 -0.123230 0.502132 0.178946 -1.880403 0.657350 -0.202459 0.136077 0.762852 -0.336716 0.952047 -0.445108 0.204401 1.380448 0.267487 -0.176501 1.276922 0.420991 -1.668810 -1.079268 -0.315630 1.287090 1.259098 -0.672950 -0.458665 -0.317718 -0.811247 0.407982 -0.654505 -1.937455 0.652079 0.268316
five -1.792412 -0.766139 -1.673155 0.129433 2.143341 -1.524174 -1.045542 1.452789 -2.600918 -0.063615 -0.308058 1.239891 0.680629 -0.412221 -0.434923 1.613940 0.101969 0.906138 1.353116 0.767298 -1.012484 -1.467197 -0.734523 -1.777826 0.482278 -2.645881 -0.104168 -0.552943 -0.272708 1.008528 0.270053 -0.634256 0.309732 2.763614 0.879009 0.139476 -2.115964 1.318662 -0.453234 0.518457 -0.557097 -0.765037 3.150042 -1.535365 0.077058 0.731686 -0.524057 -1.068558 0.320226 0.219518 -0.473591 0.664706 -1.840500 0.239979 -1.167632 0.686327 -1.606502 0.084230 0.591059 2.496937 -0.474759 0.290023 0.144111 1.393364 -0.175856 0.336647 -2.260019 0.794619 -0.524550 1.292900 0.583251 0.012880 -0.411833 -1.519358 -0.530305 0.861890 0.375168 -2.725078 -0.472112 -0.816854 -1.365117 -0.549410 -0.418762 1.546912 -0.010160 1.248263 1.899567 -2.187734 0.647805 -1.358577 1.563714 0.193498 0.639503 1.929507 -0.599138 0.029222 3.539379 1.914035 1.965104 0.490780 1.313635 2.190450 -1.131517 -0.837195 -0.147577 1.145023 0.247914 1.230897 0.033936 -0.734207 0.338159 0.144333 2.142591 -0.366785 1.569204 -0.048159 -1.275715 -1.924979 -1.376471 1.299647 0.338412 0.213212 1.814755 -1.026444 -1.165000 -1.213231 0.069632 -0.294164 -0.900399 -0.542046 0.416825 -0.188491 -0.169607 0.114781 1.913218 -0.116883 -0.197790 0.988543 -0.732231 -1.283487 0.092616 -1.624403 0.637727 0.475909 -0.022298 -0.456586 -0.034524 1.217378 -1.291866 0.065021 0.014765 2.339459 -2.330915 -0.582767 0.288058 0.256946 -0.366670 0.722848 0.075642 -1.821287 -0.440355 0.899494 -1.538309 0.737673 -0.511039 0.349498 -0.467794 0.083406 -0.483578 -1.871064 -0.764396 0.696516 -0.570348 -0.240413 0.793689 0.035450 1.708990 -0.365799 0.935718 1.654833 -1.685340 2.385428 1.739251 0.491874 1.555295 0.967148 -2.049420 -0.806644 -0.327517 1.515053 0.816403 0.408477 -1.764364 -1.133331 0.607400 1.584556 0.391578 -0.831699 0.760084 0.389886
three -1.748315 -0.904197 -1.632815 -0.412173 2.250036 -1.490195 -1.449800 1.193987 -2.505386 0.025909 -0.143039 1.474057 0.515971 -0.182097 -0.072760 1.420446 -0.478994 0.874657 1.074314 0.329732 -1.369098 -1.704660 -0.809079 -1.547135 0.511945 -2.789649 -0.227980 -0.652105 -0.260140 0.505292 0.079236 -0.307454 0.200641 2.762399 1.264995 0.295374 -1.767984 1.359048 -0.559468 0.617976 -0.106524 -1.137777 2.667670 -1.533750 0.085999 0.891692 -0.554899 -0.641852 0.723240 -0.115680 -0.639509 0.697221 -2.251748 0.520329 -0.919169 0.494498 -1.524534 -0.048513 0.389735 2.337132 -0.324474 0.283733 -0.068832 1.116476 -0.126763 0.321234 -1.958176 0.508818 -0.819368 1.009313 0.711550 0.134407 -0.515292 -1.402663 -0.237848 0.863176 0.503287 -2.758147 -0.553740 -1.043720 -1.195979 -0.542986 -0.468224 1.616337 0.171969 1.425999 1.495358 -2.265744 0.838855 -1.081939 1.012249 0.489351 0.471993 1.860607 -0.690233 -0.412178 2.897793 1.493888 2.224042 0.395977 1.778766 1.959888 -1.068430 -0.805304 -0.096630 0.724810 0.697087 1.132181 -0.555308 -0.892478 0.912282 0.052900 1.664132 -0.341973 1.266111 0.272294 -1.024793 -2.210424 -1.619326 1.307516 0.435141 0.378174 1.909709 -0.969133 -1.213287 -0.660291 -0.055857 -0.532219 -0.737890 -0.087080 0.379062 0.038732 0.117692 0.190266 1.452857 -0.022252 -0.056362 0.550833 -0.709492 -1.212652 0.138869 -1.445161 0.726150 0.096864 0.182862 -0.179128 -0.028916 0.898486 -1.346069 0.018978 0.447161 2.370834 -2.119076 -0.754035 0.527835 0.312010 -0.201573 0.589888 0.128653 -1.605057 -0.440394 1.171512 -1.414132 0.444221 -0.229167 0.348769 -0.311448 0.272052 -0.626488 -1.088971 -0.663912 0.419167 -0.698773 -0.299504 0.477461 0.654226 1.136329 -0.289542 0.788470 1.947865 -1.659472 2.293550 1.657452 0.806023 1.827757 1.027490 -2.168700 -0.339489 -0.150172 1.676921 0.979500 -0.023360 -1.327180 -1.107080 0.710216 1.484940 0.565737 -0.377779 1.085762 0.250858
was -1.739508 -1.008017 -0.900956 -1.150763 2.046788 -1.068333 -1.222753 -1.810277 -0.193865 0.599169 -0.803477 0.232047 -1.096710 1.411533 -0.444519 -0.353637 1.846891 1.207733 1.513420 -0.610505 0.322889 -0.533483 -0.635726 -1.972861 0.449403 0.214525 -0.353457 -0.201957 -0.464927 -0.822276 1.606922 -1.180714 -0.264090 -0.803715 -1.355431 -0.998206 -0.623029 -1.509911 0.440861 0.527392 -1.808131 1.202607 -1.306561 -0.970690 0.504717 -0.143406 1.345865 1.111301 0.359019 -1.905773 0.135095 0.256372 1.350621 -0.231600 -0.722447 -1.426516 -0.802024 -1.494569 0.269825 1.850563 1.408543 2.023719 -0.064159 -0.034694 1.331004 2.945005 -0.953655 -0.194103 -0.570073 0.793384 -0.243043 0.417104 0.190954 -0.315360 -1.954435 -0.829932 -0.769101 1.887634 0.212692 0.203311 0.800864 0.090480 -2.563590 0.674937 1.731219 -0.077429 -0.218856 -1.224628 -0.082905 -0.844314 0.205206 -1.393717 0.121268 -0.840560 -0.210657 1.125299 1.191961 0.487790 -1.143846 -0.305784 -0.563869 0.843456 1.042094 2.524503 0.617833 -0.234857 1.538057 -0.346882 0.124078 2.032456 0.400480 -0.120253 0.321131 -1.493950 1.688934 -1.422803 0.939250 0.988464 4.221248 -1.721312 1.023408 0.755327 -1.041095 -2.054377 0.971329 -1.773027 -2.291487 -1.901836 0.461296 -2.980144 -0.988568 0.229184 0.907471 -0.403957 0.366050 -0.210796 -1.254953 1.465167 1.216717 -0.006628 0.500698 1.461040 -1.018877 -3.277169 0.153903 -0.437052 -1.603852 -0.901255 1.602008 2.564255 -0.377135 -1.720156 0.794754 -0.233064 0.362285 -1.315731 -0.672650 1.656229 0.075451 0.794135 0.098961 0.082956 1.374716 -1.363029 1.556632 0.927160 -0.877926 0.564366 0.508027 -1.166265 -0.708665 2.158653 0.086521 -0.148750 1.291927 -2.322410 1.286580 -0.308971 -0.041381 0.645073 -0.578130 -0.214559 1.261523 2.295428 1.429752 1.162045 -1.638796 -0.175095 -1.181038 0.306488 0.052481 0.093039 -0.547295 -1.163593 -2.139642 -0.694655 -0.470153 0.709602 0.930574 -0.747148
by -0.708520 -0.823770 0.162767 1.683727 2.000396 -1.156784 -0.687935 -1.395734 0.262588 0.544986 1.045509 0.580561 -0.032782 0.220596 0.420628 -0.162692 -0.718457 -0.667498 -0.578276 -0.606673 -0.981282 -0.333986 1.602505 -0.019329 1.040681 0.682891 0.835513 0.513391 -0.652814 -0.129235 0.024890 -0.390891 -0.704163 -0.699040 1.714343 -0.710853 -1.164400 -0.535576 0.784301 -0.773232 0.445381 -0.224632 -0.117850 1.558519 0.431036 -0.376730 0.682008 0.966168 -1.008216 -0.519734 -0.177196 -1.167309 0.020192 0.563121 -0.411215 -0.988833 -0.569338 -0.877664 -0.318745 0.197075 -0.793402 2.597952 -1.743497 -0.186185 1.884536 -0.531116 -0.039259 -0.718441 -2.367238 -0.134336 -0.887836 0.223277 0.184454 -0.418460 -0.629993 -0.838927 0.053240 2.392943 -0.148358 0.130875 0.742179 -0.198420 -0.636443 0.006907 0.737757 0.222495 -0.046391 0.721454 1.109149 -0.575154 0.381199 -0.421030 -1.112686 -0.550645 -0.367038 0.635267 0.221830 0.137377 -0.698127 -0.077840 -0.276726 0.211995 0.341613 0.815698 -0.063356 -0.325815 2.251984 0.487403 0.874857 1.433992 -0.227198 -0.969338 1.112172 -0.326329 1.460210 -0.363347 0.353330 1.020706 1.161603 -0.782279 2.457115 -0.411416 -2.872182 -0.844861 0.439925 -0.593525 -0.910562 -0.513519 -0.274826 -0.188325 -0.658449 -0.072454 0.510057 0.562540 0.455441 -0.195464 0.461965 0.887359 -0.599829 0.074622 -0.528224 -1.211462 0.390621 -1.215125 0.329670 0.473080 0.135160 -0.902465 0.897278 -0.545124 0.251788 0.668101 1.113566 0.307477 1.091866 0.503335 -1.005173 -0.256947 -0.202783 0.916066 -0.498713 -0.075405 -1.954117 0.642261 1.150969 -1.090971 -0.399544 -0.326081 -0.080253 -0.583950 0.541489 3.215030 -0.647868 -0.559167 0.187597 -1.117177 0.960650 -0.179235 -0.216942 0.331123 1.999258 0.377311 0.620330 2.239140 -0.077206 1.310107 -0.578522 -0.302645 -0.927234 -1.007840 -0.077726 1.522702 -0.276325 -1.569224 0.393452 -1.366988 -0.416470 -0.824678 0.449116 -0.855007
that -0.131375 -0.395975 0.928511 -0.460027 0.681867 -1.072489 0.856686 -3.676541 1.626124 0.595001 -0.651471 -0.284808 -2.034196 1.296494 0.269713 -0.416297 -0.542211 -0.921701 -1.702468 -0.836938 2.585421 0.543490 1.536222 -1.646089 -1.730261 1.916541 0.626817 -0.246838 -0.751613 -0.747678 -0.651367 1.121291 -0.471126 -0.569519 0.257618 -1.203350 1.228218 -1.301935 1.299294 -1.822755 -1.398584 -1.209699 -1.207348 -0.440871 0.269693 -1.191502 -0.348897 0.582187 0.021311 -0.141463 -0.259652 -1.009877 0.685372 0.919186 1.299580 -1.941087 -0.288938 -0.250721 -0.360383 -1.510753 0.345600 0.861336 0.543235 -0.538045 1.832013 0.820252 0.810739 0.050960 0.607920 -2.091034 0.779807 2.085003 0.687755 0.983675 0.670904 0.235598 -1.323055 1.596609 2.222097 1.035333 0.661104 0.300003 1.818613 -0.783782 1.120218 0.071996 -1.853560 1.085469 0.157497 0.965434 -0.225254 -0.175547 -0.371557 -3.336040 2.577972 -0.540600 -0.920931 -1.474435 -0.660871 -0.730943 -0.851177 -1.335937 2.194617 -0.169381 0.303878 -0.585905 -0.119928 0.728485 -0.327390 -0.345022 -0.025979 -1.939497 0.133606 -0.089919 0.373877 -0.048392 0.582162 0.561138 -0.357657 -2.138036 -0.180981 0.033984 -2.105576 1.973993 1.145925 1.092980 -0.012616 0.326413 1.730362 0.722284 1.551182 0.105722 0.659754 1.742083 -1.544255 -0.665562 0.296238 -0.868645 -0.676599 1.742085 -0.052864 0.531433 0.056753 -1.917241 -1.091861 0.550365 -0.424253 -0.804825 0.633004 1.697724 1.159876 1.120038 0.325400 -0.688686 -0.607144 1.851833 -0.562676 -0.103834 0.174562 3.418046 1.572680 -2.997648 -1.983112 0.478531 -2.262365 -2.541712 0.928831 2.073262 -1.178953 -0.911608 -1.346861 0.047175 0.230640 0.574366 -0.678959 -0.850786 0.479840 0.692154 0.652217 1.468681 1.895933 -1.496251 0.185523 0.610608 1.118231 -0.215782 0.755062 -0.868591 1.045030 -1.187999 0.454836 0.125509 1.478895 0.337516 -0.429035 -1.822773 0.542094 -0.808992 -0.347699 0.210714
four -1.748021 -0.901686 -1.479526 -0.293625 2.039913 -2.035027 -1.436235 1.622467 -2.601826 0.229143 -0.179547 1.561678 0.621227 -0.435842 -0.251824 1.488239 -0.170755 0.728353 1.392791 0.680268 -1.587129 -1.520753 -0.693589 -1.551628 0.203317 -2.718255 -0.014846 -0.436702 0.175052 0.486093 0.240944 -0.447456 0.019232 2.589899 1.015017 0.532524 -1.862528 1.067014 -0.610338 0.385738 -0.452344 -0.837306 3.131713 -1.487573 -0.032096 1.038018 -0.923164 -0.890080 0.289355 0.190947 -0.380633 0.710465 -2.054594 0.511258 -1.060904 0.295313 -1.670121 -0.536339 0.575651 1.670080 -0.625208 0.064541 -0.229192 0.965779 -0.287188 -0.068086 -2.470935 0.468817 -0.968795 0.924299 0.558016 0.301888 -0.387832 -1.336303 -0.265875 0.953792 0.477639 -2.747978 -0.522741 -0.885740 -1.190900 -0.556577 -0.597566 1.623117 0.518170 1.482680 1.406844 -2.135265 0.810246 -1.337238 1.433181 0.491974 0.822412 1.839684 -0.341400 0.074630 3.357723 1.332341 2.481935 0.141094 1.984353 2.434571 -1.305072 -0.958139 -0.139369 1.049616 0.345077 0.315775 -0.323462 -0.604144 0.771420 -0.119165 2.332570 -0.292349 1.333117 0.289184 -1.201609 -2.456334 -1.531524 1.548845 0.621949 0.398223 1.633837 -1.131648 -1.162700 -0.770217 0.064057 -0.272230 -0.757095 -1.012891 0.441284 -0.296657 -0.254464 0.024006 1.795042 0.019105 -0.395633 1.030051 -0.643515 -1.119744 0.464734 -1.374990 0.765950 0.301951 -0.011960 -0.350676 -0.052664 1.477831 -1.406849 0.060778 0.264982 2.120059 -2.273808 -0.582487 0.670455 -0.124440 -0.137845 0.370665 0.185652 -1.671612 -0.333915 1.430188 -1.163131 0.254385 -0.230815 0.539580 -0.408972 -0.068450 -0.475033 -1.103494 -0.512462 0.647342 -0.629027 -0.371368 0.746142 0.492044 1.049440 -0.671731 0.801596 1.564695 -1.945902 2.604611 1.248480 0.260332 1.754701 0.685081 -2.225889 -0.641548 -0.455431 2.214847 1.027545 -0.122160 -1.592892 -1.280478 0.428439 1.385100 0.343406 -0.336694 0.778642 -0.032719
six -1.928186 -1.164210 -1.531941 0.550836 2.260751 -1.788904 -1.195065 1.288689 -2.686947 0.388345 -0.045882 1.460324 0.477253 -0.229157 -0.844406 1.708871 0.169859 1.022768 1.455151 0.650778 -1.657237 -1.535399 -0.437044 -1.389338 0.427052 -3.089270 -0.204387 -1.024106 -0.393438 0.637275 0.428286 -0.677871 -0.043630 2.677148 0.620334 0.778930 -1.992156 1.156407 -0.720625 0.451271 -0.183212 -0.544832 3.227031 -1.249641 -0.247576 1.030267 -0.682776 -1.029452 0.335515 -0.045684 -0.782068 0.690502 -1.651963 0.053812 -1.485150 0.648072 -1.639503 -0.416051 0.204144 2.614297 -0.369775 0.575596 0.060785 0.740567 -0.213767 0.218720 -1.920743 0.513530 -0.837420 0.679111 0.706170 0.116505 -0.512012 -1.613764 -0.491118 1.239026 0.509559 -2.955333 -0.531939 -1.159911 -0.908908 -0.441062 -1.159306 1.668258 0.259002 1.474158 1.919267 -2.615543 0.685801 -1.674134 1.311773 0.248810 0.941444 2.501223 -0.561897 0.276722 3.572548 1.628562 2.345377 0.554100 1.669980 2.464106 -1.361055 -1.181132 0.209878 1.154649 0.028852 0.756461 -0.506255 -0.367552 0.562442 0.069773 2.212633 -0.428695 1.398824 0.352893 -1.234683 -2.663814 -1.452543 1.241286 0.763744 0.413389 1.604740 -1.223274 -0.915910 -1.547093 0.049124 -0.681202 -1.213631 -0.827238 0.723121 -0.766273 -0.565502 -0.267176 1.314984 -0.309783 -0.008728 1.123367 -0.795333 -1.337488 0.582411 -1.344014 0.171240 0.443899 0.163447 0.007789 -0.137740 1.500615 -1.131241 0.583936 0.028568 1.911490 -2.146634 -0.265663 0.638252 -0.365315 -0.011670 0.468417 0.085212 -1.439420 -0.416595 1.370422 -1.099737 -0.002552 0.780699 0.349579 -0.547095 -0.349572 0.074464 -1.351023 -0.809739 1.085753 -1.052176 -0.251972 0.105073 -0.036132 1.135461 -0.091193 0.867283 1.975874 -1.823775 2.308067 1.638990 0.413053 1.504644 0.969130 -2.409419 -0.787271 0.213266 1.480057 1.420261 0.239965 -1.816674 -1.207588 0.446492 1.294120 0.580198 -0.383108 0.665582 0.120698
seven -1.884663 -1.294509 -1.917899 0.744158 1.955422 -2.381920 -1.165737 1.398836 -2.726234 0.116333 -0.340082 1.507179 0.767828 -0.272444 -0.602437 1.732012 0.391241 0.977816 1.794786 0.824295 -2.142507 -1.516432 -0.302366 -1.328244 0.064933 -3.409301 -0.103129 -0.816700 -0.412623 0.893933 0.263643 -0.264804 0.246269 3.030975 0.828570 0.486802 -1.990680 0.842802 -0.360983 0.818888 -0.064795 -0.451795 3.065762 -1.245432 -0.333845 1.428415 -1.063111 -0.596494 0.048416 0.466436 -0.683229 0.689315 -1.918492 1.115261 -1.781418 0.557245 -1.403708 -0.649749 0.529074 2.181922 -0.421601 0.877832 0.157821 0.695220 -0.580359 0.445110 -1.704953 0.441052 -1.410625 0.713468 0.178824 -0.028004 -0.314447 -1.601769 -0.389636 1.049131 0.839967 -3.121810 -1.408412 -1.247455 -0.271164 -0.367902 -1.515276 1.758809 0.105278 1.267716 1.947131 -1.755861 0.978478 -1.868807 0.977903 0.768443 1.453369 2.667695 -0.817918 0.989225 4.382714 1.714427 2.157625 0.308315 1.564528 2.683900 -1.495986 -1.204558 0.089953 1.187852 -0.049008 0.837180 -0.786532 -0.615611 -0.129063 0.674106 2.060871 -0.774255 1.605581 0.508849 -1.165860 -2.459348 -0.947301 0.999531 0.552695 0.560073 1.453385 -1.597419 -1.251009 -1.504970 -0.059570 -0.539201 -1.377995 -0.848156 -0.184577 -0.740569 -0.858035 -0.740932 1.468676 -0.406156 -0.244184 0.929967 -0.434174 -0.992166 0.503290 -1.295964 0.554991 0.319650 0.097622 0.268984 -0.131451 1.004649 -1.230386 0.392235 0.174509 1.515578 -2.251862 -0.563627 0.323720 -0.292192 -0.078994 0.366916 -0.031411 -1.601106 -0.602531 1.436712 -0.800776 0.105258 0.974745 0.155359 -0.691316 -0.518478 0.204387 -0.900547 -0.996911 1.169732 -0.879408 -0.377153 0.282597 0.571504 0.859989 -0.537766 1.277474 1.333680 -1.780575 2.054688 1.510325 0.559784 1.558275 1.493725 -2.287826 -1.085394 -0.029254 1.230433 1.998070 0.260779 -2.463020 -0.723540 1.190677 1.300995 0.184270 -0.398656 0.770199 -0.004636
with 1.053810 0.876603 1.375204 0.425401 0.375039 -0.404223 -1.003606 0.306278 0.248195 -1.751818 -0.342026 -0.906013 0.065942 0.313769 1.198803 -0.777646 -1.168888 -0.554266 -1.508690 -1.879643 1.481549 0.321413 0.292825 0.036748 0.719157 0.425771 -0.019369 -0.890961 -0.129690 -1.476224 -1.034924 0.315009 -1.420734 -1.251583 1.222457 -1.673356 -0.380010 -1.097657 0.755419 -0.583530 0.065734 -0.939487 -1.104928 0.840158 -0.078180 -1.130955 -0.988290 2.062616 -0.362580 0.222901 0.304545 0.139357 -0.417561 -0.097175 0.174340 -0.399401 0.009278 0.702662 -0.061258 0.666199 -0.866780 0.077348 -0.124698 0.640649 -0.551782 -0.372888 -0.934845 0.730847 -0.348197 0.515949 -0.253732 -0.716728 1.312302 0.462055 -0.761357 0.610488 0.398433 0.789953 -0.409516 1.718951 1.834653 0.681601 0.190586 -1.146958 -0.345661 1.101360 0.053806 -0.187665 0.892031 -0.374095 -0.212881 -0.342408 -0.228455 1.053261 0.093055 -0.579243 -0.062418 -0.708732 -1.512967 0.395962 -0.959449 -0.332197 -0.622486 0.984144 0.221666 -0.428995 -0.384171 -0.918924 2.019171 -1.570082 0.061757 -1.047022 -0.683799 0.753635 1.196154 0.610712 0.672400 0.682213 0.306085 -1.061204 2.038649 0.464907 -1.055616 0.919837 -0.707050 -0.228444 -0.342347 0.614097 0.012988 -0.883016 -0.109059 -0.846394 0.964813 1.071485 1.217903 0.700633 0.245986 1.887656 -0.039460 2.276202 0.165637 0.017061 -0.258032 -2.785710 -1.013812 0.295107 -0.037496 -0.404642 -0.212633 -0.065558 -0.740373 0.718945 -0.682752 0.257108 1.093910 1.420041 -0.782978 -0.308599 -0.382096 1.425853 1.290452 -0.596988 0.589366 -0.787157 -0.262672 -1.452327 1.119974 0.084172 -0.564117 0.137737 1.433524 1.842589 0.289173 -1.085827 -0.556077 -0.057699 0.519682 1.096223 0.613598 -0.938109 -0.072218 0.341925 1.278538 -0.203379 -1.708572 -0.844470 -1.015557 -0.009544 -0.790544 1.895293 -1.232537 -0.283712 0.107721 0.488670 -0.004129 -0.222272 0.919880 0.064023 -0.223982 -0.399778
on -0.367394 1.245232 2.036908 0.973586 2.429847 -1.586071 1.043948 -0.675663 -1.201368 -0.459901 -0.980851 -0.461130 0.157765 -0.112487 -1.623638 0.311887 -0.259575 -0.747346 -0.398407 -0.294084 1.219505 -1.014956 2.002080 -0.328567 -0.865576 0.744964 1.524056 -0.943379 1.066651 0.270662 -0.428636 -1.923595 2.824117 1.889805 2.570479 1.064399 -0.338341 -1.055822 -1.630690 0.364898 -0.692811 -0.932741 0.103748 0.838158 0.230124 -0.217750 1.805637 0.607196 -0.376222 0.694402 -0.217397 0.731016 -0.914818 -0.324214 1.015648 0.302894 0.159851 0.766877 -1.062077 1.265933 -1.290012 0.882561 -0.328886 0.893135 1.971240 -0.746404 0.347632 0.765202 -0.288425 1.611026 -0.863698 1.172240 -1.147172 0.195297 0.109199 -0.494883 -2.049601 0.443456 0.329289 0.112246 0.959385 -1.310363 1.309479 -1.168266 0.432377 -0.594057 -1.373315 -0.006261 1.007232 -0.446995 1.466808 0.849802 0.097266 0.856848 0.934139 0.265060 0.075866 -0.017292 -1.785010 -0.275604 1.323904 -0.608391 0.715243 -0.898350 0.173447 0.065189 1.038295 -1.039229 0.327961 -0.081257 -0.188845 0.014687 -1.189170 -0.841284 2.752255 -0.992227 -0.558332 0.359867 0.252395 -1.767171 1.183241 0.692042 -1.276764 2.012713 -0.090429 0.593911 -1.409263 -0.617882 0.456849 -0.439175 -0.005053 -0.050836 0.175074 1.372821 1.494440 1.709364 0.328166 1.073876 1.878770 -0.245764 0.522600 0.624645 0.052047 0.166397 -0.477923 -1.391353 -1.774031 0.416484 -0.007950 -1.485853 -1.331925 0.347965 0.065003 -1.671831 -0.443429 1.948631 -0.529916 -0.112497 -1.108466 1.376105 -2.432824 0.289783 0.704510 -0.919233 -0.168729 -0.450486 -0.469845 1.201425 -0.537378 -0.265513 0.275246 -0.779000 -0.402511 1.740233 -1.504046 -0.575614 1.282815 1.235448 0.637764 1.348155 0.188017 0.997774 1.166710 2.163241 0.159587 -0.411480 -1.387275 -0.688361 -0.118284 0.046141 -1.004440 -1.733472 1.649810 0.870202 -0.119308 1.875694 0.666617 0.758764 -0.267547 -0.821020
are -0.122113 1.553153 0.646927 0.116099 -1.876455 1.306321 -1.518523 -0.337695 2.664157 -0.073348 0.159059 -1.065895 2.016426 0.091892 0.484264 0.106287 -0.974578 -1.177426 -0.735292 -1.354601 1.269085 0.390504 -0.411858 0.867619 1.752388 1.093340 1.119900 0.560082 -1.058034 -2.500062 -3.902949 1.401078 1.328258 -1.890471 0.447013 -0.163866 -1.272277 1.902439 1.711762 0.854409 -0.497498 -1.967607 -1.377445 1.277598 -1.920288 -1.543445 -0.218781 1.743926 -2.005607 -1.083944 1.891236 -1.843868 -0.079871 0.731154 3.358254 -0.428907 1.160447 0.293432 -1.535580 0.748351 1.552986 0.286376 -0.459390 0.616407 0.304422 1.668145 -0.409438 -0.621672 1.920121 -0.220312 -0.421446 1.298769 0.157704 1.016329 -0.028871 -1.538109 1.589741 1.703813 1.577165 0.096095 -1.627321 -1.416725 1.258151 0.838327 0.255128 0.659725 -1.092563 -1.392167 -2.329364 0.676493 0.648048 -0.168350 -2.553538 -1.404965 0.402604 -2.805972 -6.608604 0.144706 -1.319178 -0.959569 -0.497117 -4.630497 -1.104392 2.050403 -1.922205 -1.657044 2.315089 -0.249981 -0.320577 -0.655843 3.497383 -0.584743 -0.911266 0.038447 0.202896 0.737583 -1.361461 1.706350 -0.258880 0.344307 1.797382 0.064886 1.320424 0.160634 0.326248 1.425841 0.422098 -0.803224 0.155512 -0.257162 1.314125 1.730284 2.848055 -0.245580 1.708620 0.067114 1.424507 0.927462 0.206931 -0.708326 -1.609154 -0.797406 -0.702715 -1.074316 0.849310 -1.638064 -1.427203 -2.281180 0.033862 -0.118829 0.370762 -0.629621 -1.441946 -2.610902 0.632237 1.658266 -2.024510 -0.144631 0.058756 1.166633 -0.223581 -2.084138 -1.627285 2.233534 -0.509965 0.687506 0.291891 2.814635 -0.919217 1.299658 1.256913 -0.187185 1.253087 -0.515321 0.531418 -0.201883 -0.926982 0.115926 -0.857517 -0.045024 0.444331 -2.395419 -2.073113 0.314709 -2.777222 0.810185 1.792948 0.027354 0.599379 -0.790839 -0.607140 2.638046 1.070488 0.884786 0.462392 0.962940 1.727542 1.560009 -1.397922 -1.147645
it 1.039170 -0.943915 0.051927 -0.632773 -1.154727 0.663128 0.872403 -2.991295 1.243631 0.879458 0.286198 -0.501106 -1.008493 0.269644 0.182812 -0.501936 0.267467 0.491518 -0.820689 -0.400737 1.905053 1.346496 -0.378389 -2.615019 -0.303304 1.401800 -0.320625 -0.761885 -1.055927 -0.682488 0.848527 1.375561 0.250605 -0.650833 0.402864 0.167999 0.891157 -0.977781 0.742049 -1.059180 -0.635374 -0.338414 0.628945 -0.908329 1.068895 -0.511618 0.587044 -0.131929 -0.148331 -1.277798 0.428637 -0.718372 1.059372 -0.137754 0.914385 -1.595275 -1.235133 0.327889 0.170518 0.000763 -0.071963 0.443397 0.178429 -0.062658 1.641018 0.917069 1.237030 -0.149225 1.641775 -2.237492 0.683508 1.253540 0.387889 -0.418679 -0.902920 0.274532 -0.487399 0.921333 1.052547 1.018267 0.020832 -0.187062 0.527299 -0.077349 0.886836 -1.082053 -0.886274 0.429093 -0.328495 -0.031957 -0.205898 -0.901590 -1.201659 -3.197448 2.669712 -0.261484 0.026288 -0.048279 -1.623173 -1.923008 -0.827466 -2.094382 1.349377 -0.266146 0.054326 0.590384 -0.081850 0.909488 -0.611213 0.366137 0.367084 -2.066563 -0.234667 0.681337 0.296023 -0.714864 0.603932 0.933262 2.072043 -2.552902 0.639961 0.340569 -0.823934 2.027194 0.760032 1.057114 -0.084773 0.181882 1.780908 -0.590460 1.629745 0.472023 0.481211 1.112650 -1.082559 -1.067654 -0.479823 -0.022418 -0.748370 1.086369 -0.346036 0.397600 -1.406421 -1.023402 -0.060566 0.715979 -1.051870 -0.734827 -0.304048 1.714418 1.632572 -0.436964 1.394690 0.696453 -1.382607 1.146925 -0.682396 -0.255541 0.857261 2.030521 1.108675 -2.210850 -0.571852 -1.216723 -1.814532 -0.460545 0.972374 1.781356 -1.079089 -0.949962 -1.303992 0.210793 0.235160 0.253560 -0.373036 -0.219213 0.463889 0.505512 -0.850883 2.194789 0.228853 -1.332652 1.034890 0.833082 -0.325317 -0.026291 1.045386 0.295852 0.511132 -0.736921 -0.075814 0.013861 0.837104 -0.072145 -1.347391 -1.192817 0.212460 -0.334031 -1.263826 1.021470
from 0.285955 1.629404 0.574065 1.016347 0.408338 -0.450138 -0.376005 0.147510 -0.361400 -0.968712 0.575630 -1.559406 0.103870 0.948204 0.504336 0.042938 1.081188 -0.326971 -0.794107 -0.805068 -0.090488 -0.792590 1.306390 0.662914 -0.844078 1.586871 1.054847 -0.005212 1.649293 1.391555 0.406739 -0.131426 0.161296 -0.606277 0.655558 -0.085662 -0.470173 -0.710039 0.695913 -0.691262 0.571997 -2.506699 -0.793263 -0.218665 0.405535 -0.389654 0.160440 0.234888 -1.119465 0.035593 1.234380 0.091498 -0.308173 -0.393100 0.001871 -0.182646 -0.465363 0.280564 -0.080524 1.657066 -0.839239 0.176926 -0.179753 0.925259 1.371668 -1.160331 0.417538 0.191388 -1.316830 0.025709 -0.432503 -0.198126 -0.533439 -0.763117 -0.239472 -1.187711 -0.481179 0.684843 0.079636 0.726022 0.310375 -0.931244 -0.392605 -0.028905 -0.232751 0.582269 -0.280685 -1.342329 -0.408443 -1.441911 -0.427260 -1.041610 0.412016 -0.515964 0.544849 0.451288 0.264877 0.563977 0.392577 0.065364 -0.260733 1.416409 0.717074 0.295735 -0.383641 0.432717 0.040763 2.307313 0.772803 -1.206625 0.501619 0.764006 -0.168652 0.051509 -1.086173 -1.578863 -0.783138 0.883100 1.369469 -1.664919 1.011584 0.524663 -1.894183 1.550390 -0.525642 -1.600054 0.568590 -0.730712 -0.724929 1.139625 0.708973 -0.533775 1.545380 0.484534 3.753627 0.502854 -0.782889 0.790619 0.713237 -1.034458 -0.053663 0.999375 -0.677634 -0.441893 0.544631 -0.117275 0.557269 -0.727391 0.593911 -0.372924 1.341946 1.051068 1.067320 -0.005364 0.496162 0.727787 0.349679 0.008882 -0.848614 1.243968 -1.128293 -0.334206 -1.603579 -0.342861 -0.315742 -1.815800 -0.383171 1.467072 -1.131350 0.025960 0.144537 0.542865 -0.773635 -1.376234 -0.373194 0.512685 0.090963 0.375710 0.652144 1.816441 0.807294 0.797564 0.850665 3.462420 -0.405703 -0.408444 -0.018829 -0.739446 1.102015 1.616408 -0.524915 1.066037 0.501779 -1.383718 1.096126 0.750037 -0.025927 0.140114 0.981257 0.477502
or 1.512767 0.919180 0.218848 1.121497 -0.124265 1.671389 -1.624378 -0.434774 1.653862 -1.283495 -0.090257 -0.441331 -0.515562 -0.131219 0.470440 -0.383565 -1.121757 -1.637903 -1.454876 -0.891770 0.921397 -0.007701 -0.707272 1.554388 -0.880522 1.060421 -0.106986 0.354254 -0.757517 -2.509996 -1.248069 0.434879 -1.088320 -1.625714 0.902690 0.451672 0.558927 -0.436255 -0.866654 1.127459 0.193710 -1.550721 -1.768438 1.342078 -0.298628 -0.804486 0.136947 1.158755 -2.220803 1.223529 0.624638 -0.899775 -0.413124 0.502717 2.522462 -0.460168 0.278242 1.559932 -2.012625 -1.121911 -0.683757 -0.843987 -0.538433 0.592045 0.124814 0.555726 -0.414345 -1.038459 0.814296 -0.895585 0.286573 -0.566777 1.898196 0.715959 0.664228 -0.036412 0.081558 -0.795130 -0.156879 -0.298229 -0.459365 -0.872098 0.868732 -0.568330 -0.973426 -0.190298 -1.736175 -0.157734 -1.431394 0.628665 -0.040082 0.016203 -1.813651 -1.102813 2.609792 -1.420955 -1.931830 -0.159356 -0.941830 -1.077436 -1.919752 -1.359854 1.043150 -0.097330 -2.045103 -0.905187 0.766138 0.073513 -0.444590 -1.213938 1.386821 0.201926 0.051289 0.334257 -1.184045 0.311527 -0.834303 1.159405 -0.343127 -0.335108 -0.084765 -1.431467 -0.519825 0.789575 -0.530837 1.206501 -0.856616 0.726198 -0.491007 0.781168 1.153349 0.425951 -0.662220 1.613587 -0.483501 0.511220 0.262065 -0.866978 1.440705 -0.390979 -1.123256 -0.116144 -1.285140 -0.918266 0.032765 -0.492070 -1.635557 -2.501922 0.511120 -0.349836 1.349524 0.618813 -0.374960 -0.743625 0.265187 0.766845 -2.408318 -0.753852 -0.471559 2.044191 -0.473235 -0.643175 -1.031941 -0.676200 0.160372 -0.996229 0.106794 1.798880 -0.459547 1.061116 0.690758 0.073201 0.774078 -0.135762 0.757200 0.271276 0.141611 0.376460 -0.282690 0.685880 1.314358 -2.064698 0.370445 1.097056 -1.618683 -0.198673 1.825047 1.662163 0.461287 -0.624642 -2.383195 0.571760 1.491286 -0.051120 0.793032 -1.226240 -0.450606 0.162644 -0.655190 -0.687745
his -0.880254 -0.943694 0.077444 0.062381 2.060986 1.246183 0.216038 -1.992325 -1.526142 -0.928780 -2.183431 0.652891 -1.616534 0.526774 0.735185 -0.537993 -0.141605 -0.195654 0.754831 -2.121542 1.612734 0.262030 -0.268859 -0.114525 -1.703311 0.455280 -0.643233 -0.347741 0.915404 0.756905 1.262324 -0.287887 -0.941289 0.152649 0.185636 -0.441365 0.642645 -2.764988 0.135594 -2.165478 -0.658638 0.506599 -2.906068 -1.396268 2.220590 -2.248809 0.037460 1.660125 2.798015 -2.290710 0.023436 2.688206 -0.008008 1.193267 -1.344306 -1.194800 0.032339 1.500348 0.303638 0.412154 1.851841 3.487434 -1.038383 0.311550 -1.308752 0.297743 1.036765 -0.265535 -1.212320 1.215520 -0.665818 0.690439 0.896653 -0.397621 -1.292790 -1.605868 -3.203323 1.655910 -0.492358 2.056234 4.669842 0.409602 -1.224052 1.518481 1.926422 1.024068 -1.306973 0.840227 1.326036 -1.249347 0.729114 0.489969 1.736789 -0.015428 0.737472 1.891476 2.262880 -0.417900 -2.224842 0.664217 0.393104 2.218109 0.468912 0.131267 1.994883 -0.768342 0.268095 0.650075 1.036052 0.216489 -2.335446 1.716102 0.701667 0.295018 0.763488 0.384603 1.172503 0.319212 0.293410 -2.872066 1.020346 0.119937 -0.390903 -2.193832 0.205976 -1.747682 -2.680391 -0.463146 0.798028 -0.928545 -1.745249 0.052149 0.592006 -1.860927 -1.071275 -0.956882 0.540532 0.068375 0.073102 2.335028 -1.171292 3.066317 -2.179085 -1.585069 0.337689 0.871371 -1.414999 -1.915630 4.036386 2.229388 -1.192509 -2.130296 0.033871 -0.027436 -1.341094 -1.374453 -0.714463 1.178304 -0.064288 1.131045 0.775277 -2.778994 2.577137 0.437021 1.980452 -1.128593 0.107547 -1.590784 0.358578 -0.814021 0.965501 -2.553566 -1.787001 2.082243 -0.701066 -1.373652 0.035491 -0.444047 2.355250 -0.601156 0.893529 1.764163 1.347883 1.100531 1.726115 -1.081823 -0.197417 -0.639152 -1.234156 -0.101295 -1.994364 -0.582121 0.562346 -0.922883 -2.107282 0.312817 0.113716 -0.969431 0.176164 0.723566
an 0.716530 0.001116 0.299489 0.391897 2.130575 -0.355615 -0.194936 -0.837673 -0.442897 0.132827 0.279559 -0.153661 -1.189679 0.162515 1.025069 -0.489670 -0.160986 -0.321462 -0.041646 -0.743303 2.401501 0.133258 -0.739433 0.329396 -1.566882 1.365415 -0.186970 -2.793797 -0.770771 0.095166 -0.790418 0.620789 -1.261461 -1.198137 1.018442 0.091730 -0.977604 -2.192294 -1.868281 -0.674695 -0.904681 0.209767 -0.930675 0.640662 -0.079159 0.901533 -0.245389 1.069003 -0.115733 0.053052 -0.886400 0.112380 -0.066978 1.482291 -0.110272 -2.802281 -2.771197 -0.622535 1.054250 0.107211 -0.484689 -0.635275 -0.352409 0.176484 0.571733 -1.071930 -0.570420 -0.723519 0.164861 -1.369331 -0.693907 -0.976295 0.215974 -0.380754 -0.328388 1.348749 -1.468939 1.553736 0.947862 -0.703050 1.006930 1.071200 0.205000 -1.895955 -0.881401 -1.061313 -1.254405 0.005022 -0.921663 0.378454 2.079613 -0.162112 -1.564741 0.008137 1.812672 1.299736 1.643858 -0.210601 -1.530164 -2.960830 -0.799142 0.005725 2.178051 0.915936 0.404562 -0.570433 0.671769 -1.046431 -0.471994 0.905921 0.484606 -0.614446 -0.657128 0.304616 -0.820101 -0.610624 2.443121 1.280027 0.525085 0.554161 0.545653 0.050798 -0.705589 1.248523 -0.129775 -0.667388 -0.903219 1.519168 0.325836 0.283874 0.024101 0.580899 0.297285 1.047041 -1.516487 0.575816 -1.992169 0.683293 0.203303 0.305726 -0.615704 -1.218334 -0.760095 0.316278 -0.204588 -1.212409 -2.414321 -0.276651 0.326293 0.551093 0.223265 0.873826 0.820965 0.992157 -0.922820 -0.267913 -1.614822 1.242177 -1.127340 1.435815 0.698287 -0.134905 -0.756517 -0.446576 1.313179 0.591036 -0.951386 -0.373544 -2.517017 1.335626 -0.859115 0.907607 -0.085804 0.989929 1.738644 0.000100 1.365924 -0.389394 -0.502635 1.028384 -0.214606 0.856410 1.455063 -0.695609 -0.539422 1.333025 0.195261 0.659761 0.896822 0.313980 0.053820 -0.107931 0.488193 -0.834020 -1.210384 -1.387249 0.553111 -0.139411 0.972296 -1.087656
be 0.179126 -1.386914 -0.106413 0.459877 0.101678 1.079558 -0.440288 -3.758045 1.314635 1.927090 -0.012177 0.800600 -1.387101 0.646311 0.354077 -1.590380 -1.710809 -1.329200 -1.218125 -2.878088 2.295518 1.757673 0.628663 -1.752617 0.501314 1.247243 0.835755 -1.594195 -0.947489 -0.419863 0.293903 2.162870 -0.254894 -2.225768 1.571085 0.095841 0.766885 -1.762994 1.091796 -1.572220 -0.491659 0.362425 -1.529789 1.249740 0.624930 -1.950056 0.190716 -0.735494 -1.822882 -0.942129 1.481969 -1.823285 1.117687 -0.014320 1.368803 -0.609460 -0.089791 0.865421 -1.852971 -0.546481 0.153129 0.250261 0.418044 0.031661 2.202322 1.219940 1.584786 -0.998851 0.986671 -2.191863 1.207076 0.241501 1.138443 0.113901 -0.795341 0.392214 -1.020071 0.782482 2.674413 0.915425 0.598282 -1.203326 0.636188 2.512318 0.706601 -0.405660 -0.175325 -0.822027 -0.335206 0.901153 -0.482499 0.511194 -1.266863 -3.837672 1.473637 -3.386322 -1.380366 -0.410165 -2.912417 -3.042776 -1.978227 -2.302578 -0.661985 0.369021 -1.073992 -1.484036 2.302846 0.879562 0.320778 -0.686078 1.703958 -1.497476 0.578572 -0.840993 3.218062 1.257237 -1.048135 3.209269 0.624431 -1.852597 1.488104 0.029811 -0.598608 1.524899 0.428683 3.388924 0.685284 1.585234 0.537232 -0.518438 1.565137 0.246487 1.954040 0.594824 -1.966146 -0.345639 0.491239 0.004468 0.449097 0.899122 -1.790410 -1.446455 -0.546157 1.287242 1.304609 1.812479 -0.756837 -2.784998 -0.276338 -0.155043 1.279663 -0.616710 0.706300 -0.208339 0.973923 1.306084 -1.791945 -2.194659 1.283361 3.768785 0.372744 -2.762222 -3.637650 -0.721268 -2.345872 -0.812562 0.577261 1.107430 -2.102810 -0.044280 -2.077329 1.043521 0.717737 -0.083023 1.014708 0.293371 -0.137393 0.807387 -1.023938 1.638236 1.202215 -1.128234 -0.936238 2.632043 -0.540054 1.707270 1.436352 1.782929 -0.522092 -0.851359 0.999385 1.275617 1.676108 -0.717804 -3.089101 -3.918825 3.126336 1.994789 -1.187869 0.277701
this -0.242710 -0.127939 0.556693 -0.414991 1.346933 -0.063252 0.582304 -2.708687 2.167166 -0.147256 -0.041127 -1.315608 -0.464618 0.865712 0.826453 0.201469 -0.623286 0.368082 -2.063973 -0.719187 2.544456 0.125995 -0.227173 -0.430546 -0.994807 1.478664 0.217606 -1.421234 0.518026 -1.287521 0.218301 1.722766 -0.988570 -1.233949 1.028127 -1.262664 -0.786396 -1.515016 0.174474 -1.732702 -0.224652 -0.843816 -1.362408 0.519193 1.093573 0.449609 0.832802 -0.592613 -0.669194 1.066022 -1.040107 -0.887012 0.007138 0.051728 0.121059 -2.204152 -1.271105 0.653228 0.063730 -0.990311 -1.001041 0.763579 -0.376170 0.474070 1.722202 -0.089941 -0.214514 0.302930 0.632189 -2.052857 -0.790444 1.337395 0.528387 -0.888118 -0.380025 -0.484696 -1.274879 1.088550 2.216191 0.895957 0.528097 0.845966 0.437936 -1.551632 -0.528274 -1.301108 -1.799662 0.219434 -0.032283 0.328544 0.594875 -0.500278 -1.051370 -1.952153 2.458762 0.401921 0.216369 -0.991986 -2.404284 -1.013867 -0.841782 -0.948785 1.076991 -0.155163 0.724826 -1.073252 -0.360206 -0.138678 -1.493862 1.343739 0.227622 -1.922505 -0.426704 1.036895 0.182440 0.684940 0.400632 0.731197 0.658807 -0.807446 0.279881 -0.007286 -1.651941 1.004487 1.520003 0.825181 -0.041160 -0.172251 1.732222 -0.168190 1.153232 0.093804 -0.432743 1.862922 -0.475931 -0.718086 -0.651756 -0.180594 -0.030182 0.898692 -0.347066 0.328409 -0.158496 -0.782692 -0.852235 0.832564 -1.690667 -1.519063 1.280877 0.797950 1.166206 0.661429 2.080634 0.367616 -0.570024 0.791277 -0.513180 0.223416 -0.155665 1.736720 -0.051967 -3.082986 -0.797157 0.044611 -1.338111 -0.801379 0.656453 2.270939 -1.642240 0.437350 0.809331 0.093044 0.605318 0.276351 -0.971814 0.166106 0.926507 -0.104488 -0.998804 1.015201 0.898100 -0.807693 0.010247 0.341630 0.896729 0.160693 0.263149 0.260087 1.916559 0.541449 0.147772 -0.541524 1.192340 -1.208525 -1.495513 -0.665050 0.724442 -0.284775 0.448506 0.237394
which -0.058446 0.607222 0.679377 0.822573 0.991904 -0.112097 0.499831 -1.465767 2.194367 0.089790 1.374756 -0.178923 0.105292 0.998901 0.513197 -0.346768 -1.811210 -0.864861 -2.137498 -1.801000 0.919887 0.152190 0.840823 -0.214484 -0.759993 1.720571 0.748831 -0.787855 -0.801476 -1.464401 -0.810979 1.091883 -0.837354 -0.583738 0.852344 -0.557431 -0.394909 -1.384746 0.984453 -0.422392 -0.682435 -1.885323 -0.228300 0.106413 1.254764 -0.183477 0.171930 0.450519 -0.389767 -0.618277 -0.152889 -0.754317 0.240007 -0.289707 -0.090580 -1.651663 -0.753576 -0.214837 -0.512811 -0.698460 0.120970 -0.313468 -0.330913 0.510197 0.900044 -0.962364 0.635566 -0.412199 0.297415 -1.165767 -1.063520 0.760465 0.013659 -0.803799 -0.820615 -0.454351 -1.218813 1.122778 1.414151 1.145060 1.161381 -0.816155 0.398999 -0.224536 1.065908 -0.758369 -1.088845 1.060156 1.035555 -0.510420 0.829377 0.256267 -1.090899 -1.545010 1.644103 -0.861473 -0.581838 -0.115095 -1.001421 -1.041330 -1.081856 -1.326270 0.890282 -1.842277 -0.165450 0.224830 0.809242 0.599640 -0.713023 0.481905 0.096209 -1.750293 -1.034188 1.335977 0.469394 -0.560220 0.059035 1.017404 -0.305011 -1.431401 1.762240 -0.712872 -2.152089 1.344562 0.924657 0.310573 -0.195930 -0.353526 2.067898 0.027013 1.149468 -0.465186 0.499538 0.520103 0.152589 0.024701 0.134888 -0.005897 -0.506700 0.664122 0.419842 0.122275 -0.367033 -0.637396 -0.339958 0.851698 1.123345 -0.030574 0.443495 -0.426569 1.657861 1.283033 1.665271 -0.142618 -0.242446 1.095061 -1.359291 0.549138 -0.033418 1.942242 0.807646 -0.964146 -0.661199 -0.610562 -0.369997 -2.229974 0.193031 0.226899 -1.571129 -0.239830 0.739565 0.744396 0.132181 0.335186 -0.386191 -0.340914 1.259615 -0.456884 -0.522341 1.855442 1.466145 0.031778 1.037546 0.420276 -0.915365 0.273547 0.131448 -0.728022 0.975869 -0.096997 0.033264 0.286468 0.480322 -0.704985 0.187636 -0.556303 0.311042 -0.716899 -1.286827 0.728854
at -0.875206 1.434316 -0.273713 -0.387723 2.305382 0.783367 0.070974 0.244650 -1.085254 -1.613224 -0.327439 0.683220 -1.274580 2.010956 0.626365 0.527925 0.178205 -1.043225 1.499434 -1.503797 1.809324 0.468576 1.030011 -0.610971 0.171087 1.166044 0.854044 0.386828 -0.701915 1.488229 -0.764944 -1.947452 1.248206 1.365509 -0.453542 -0.546315 -0.273907 0.795375 0.219778 -0.106124 -1.399124 -0.201982 1.152076 -0.973639 0.610652 0.894038 -0.137349 0.642326 -1.165395 -1.293038 0.698282 -3.033995 -1.024651 -0.984389 -1.167009 0.590400 -1.002953 1.704291 1.201857 2.474746 -0.225361 0.288788 -0.633100 2.218227 1.034916 -0.695793 -0.108030 -0.026755 1.829420 0.006780 -0.830402 -1.077712 -1.090293 -1.087206 -1.236713 0.819568 -1.927293 0.339973 -0.551295 2.297383 0.133590 -0.422594 0.352281 -0.431288 -1.774538 1.608522 -0.132084 -0.406670 0.741356 -0.674209 -0.064291 -0.225517 0.051656 -0.276252 2.158470 0.494447 -0.751220 0.881750 -0.634667 1.703093 2.507765 3.025246 0.374127 0.696836 -0.469627 -0.139405 1.425848 -0.795493 1.368322 -0.839181 0.153528 -1.052411 -1.273317 -0.508126 1.431039 -0.509722 0.291738 1.858996 1.078221 -0.009902 1.141027 0.995856 0.377870 0.046812 -0.928281 -1.134530 0.910656 0.819598 -0.500490 0.102687 -1.903021 0.953879 2.455169 1.957679 1.265320 0.733121 1.170850 1.227548 2.102305 0.432276 0.394001 1.718366 0.641028 -2.004298 -0.952196 0.475921 -1.161072 -0.996369 -1.042597 1.416517 -0.528066 0.739400 -0.305781 -0.456844 0.564959 0.393237 0.443754 0.922022 -0.961470 1.587260 -1.422860 -0.877260 -0.910071 -2.096095 -0.391901 -1.178123 0.430253 0.429005 -0.795497 -2.706156 0.249593 -1.000641 -0.209911 1.276758 -0.286766 -0.373005 0.693879 -0.727398 0.266002 0.693006 0.732102 1.735142 2.158076 1.602186 0.168218 -0.272864 -2.035375 -1.969821 -0.310456 -0.120133 0.001496 -1.131788 0.377674 -2.222686 -1.956978 0.656728 -0.391117 1.002365 0.381869 0.486726
he -1.868565 -0.463731 -0.904731 -0.913941 1.951321 -0.364280 -0.705456 -2.576008 -1.040721 0.081900 -2.206930 0.508431 -2.417596 0.039212 -0.019069 -0.300821 -0.365146 -1.836940 -0.176468 -1.621626 2.077061 0.673376 1.169036 -1.841982 -1.472481 -0.277225 -0.585885 -1.264732 0.351010 1.481427 2.026689 -0.758339 -0.696006 0.724809 -0.178864 -0.018324 2.173424 -2.503778 1.791756 -1.872028 -1.150265 0.857760 -0.833851 -2.344899 1.570380 -1.739432 -0.550315 0.305451 3.047058 -3.306268 0.147679 1.383562 1.449181 0.936496 -1.680428 -1.300460 -0.903039 0.682103 1.187694 0.998693 2.017993 1.254547 -0.608443 0.579681 0.413653 1.798447 1.662355 -0.608817 0.160377 1.213074 0.626037 0.833383 0.950113 0.127083 -1.187713 -0.872411 -3.219863 1.467729 -0.259316 3.236316 2.717352 -0.954010 -0.375603 2.027643 1.687670 1.531446 -1.250668 1.214622 0.671725 -0.644245 -0.220309 0.893517 1.522838 -0.589423 1.921854 1.093373 3.011716 0.134238 -1.853083 -1.104159 0.935240 1.827383 0.939852 0.101854 2.263579 -0.094349 2.323619 -0.184127 1.061862 0.309597 -0.944818 1.296686 0.169011 -1.423134 2.285796 -0.694984 2.573553 -0.010458 2.498703 -3.036239 0.648901 1.739657 -0.884079 -0.945330 -0.005668 -1.425921 -1.934646 -0.068465 1.711002 -0.930908 -1.710060 0.883292 0.694320 -0.608701 -2.587217 -0.144141 1.723375 -0.655987 -0.944735 2.383413 -0.129502 3.234558 -2.916892 -2.192050 -0.322433 1.023017 -0.651389 -1.365255 2.242123 4.051287 -0.274559 -2.225884 0.262954 0.119344 -1.714667 -0.416732 0.197930 -0.080523 1.021500 1.366303 1.023885 -1.595555 0.678314 -0.349776 0.595043 -0.693562 0.917183 -1.719624 -0.581447 -2.291333 -0.683733 -0.151655 -0.968490 0.934829 -0.401290 -0.818033 0.215691 0.172724 1.888881 1.078795 0.918222 0.064799 1.147636 1.450863 -0.287537 -1.005914 -0.017939 -1.169854 -0.696653 -0.152388 -1.640472 0.287476 0.237991 -0.116238 -2.267489 -0.700723 0.963682 -0.329317 -0.670919 1.096496
also 1.041401 0.859450 0.652652 0.830419 0.710009 -0.176252 0.086278 0.094768 1.430667 -0.408176 0.766438 -0.392187 0.655472 0.135586 0.338762 0.935326 -1.106446 -1.114521 -0.766967 -1.300125 0.465516 -0.108455 0.727736 -0.043024 -0.651161 1.117698 -0.217768 0.522994 -0.417261 -1.261639 -0.665255 0.590446 -0.579980 -0.320287 0.294005 0.596177 0.117831 -0.949257 -0.780776 0.025395 -0.620200 -1.389135 0.727126 0.601203 1.764672 -0.457083 -0.951388 0.108947 -0.247722 -0.623559 -0.422802 -0.734530 0.300101 0.377751 -0.008933 -0.251307 -0.211907 0.440801 -0.354947 -0.587635 -1.137446 -0.496382 -0.106899 0.193211 0.950990 0.453437 1.596109 0.028184 -0.648248 0.187038 -0.660677 0.642986 0.091636 -0.589847 -0.942887 -0.561350 -0.278101 0.921020 0.739806 -0.392076 -0.013589 -0.339122 0.060668 -0.983939 -0.786424 -0.045225 -0.670027 0.823087 0.453993 1.458454 0.850960 0.514727 -0.175758 -0.343727 0.766063 0.019163 -1.607790 -1.345323 -1.295919 -0.999893 -1.247476 0.186096 -0.316090 0.015052 -0.893921 1.039904 0.286905 -0.659870 -1.202186 -0.113022 0.715668 -0.214977 -1.548383 0.660494 -0.235118 0.471188 0.578334 -0.304459 -0.480636 -0.154943 0.437211 -1.029806 -1.885500 0.187297 1.317655 0.199626 -0.454708 -0.321732 0.883031 0.585426 0.208519 1.448349 0.542492 -0.594688 -1.004417 0.772466 0.859419 -1.321200 -1.691795 -1.751708 0.853362 -1.703882 -0.160986 -0.546660 0.341693 0.060979 0.195212 0.789794 1.134518 0.388135 -0.635708 -0.691947 1.037430 -0.282590 -0.024394 0.125348 -0.562412 -0.320054 -1.564989 1.266376 -0.377776 -2.192569 -0.602491 1.037931 -0.858160 -0.150311 0.722590 0.233947 -0.104761 1.190783 -0.785272 1.419489 -0.034343 0.644295 0.633819 0.261952 1.006468 0.755028 -1.847335 1.145437 0.251221 0.615542 -0.914432 -0.650775 -1.257700 -0.111649 0.498389 -0.408378 0.009835 0.853997 0.694549 1.320250 -0.387167 -0.653900 1.250956 0.666316 0.248429 -0.122643 -1.703450 -0.285770
not 0.529298 -0.940044 -0.065522 1.570791 -2.192629 -0.003126 -0.365999 -2.151352 1.569171 0.149797 -0.124235 -0.469655 -1.955128 0.589121 0.027009 -0.232278 0.208220 -0.501866 -2.289903 -1.621461 1.459721 1.674271 -0.118827 -1.592977 -1.682773 1.379557 -0.044633 -1.220515 -2.350081 -1.058803 -0.570049 2.067209 0.506693 -2.648588 -0.176233 0.641461 1.636837 -0.090720 -0.036562 -0.445801 -0.315074 -1.146078 -0.711462 -0.240793 -1.203116 -1.147641 0.798913 -0.236791 -1.157543 -0.452064 -0.608533 -0.053120 1.663936 0.700682 2.636760 0.592812 0.944397 1.394781 -1.078607 -1.205065 -1.034742 0.782878 0.263056 -0.099141 2.264521 2.604003 0.241355 0.284710 1.599181 -3.219894 2.315481 1.048458 1.310107 -0.148590 1.550285 -1.016363 -1.104781 -0.353109 3.412030 1.101844 -0.663243 0.064613 3.094645 0.404288 1.379782 -0.587209 -2.682408 -0.905169 -0.447759 0.425025 -1.123069 -0.289801 -1.598880 -1.105893 2.741005 1.081297 -1.975899 -2.006129 -0.392676 -0.206012 -0.182176 -1.980134 1.012932 0.556574 -0.033338 -0.311556 1.101309 0.080954 -0.384962 -0.936264 0.136304 -0.121353 0.467410 0.394256 1.250996 0.108231 1.591659 -0.971542 0.900404 -2.384701 -0.086738 -1.431007 0.333007 1.232612 1.166072 2.653825 0.707798 -0.859467 0.564444 -1.049460 1.085321 0.369463 0.163875 -0.239192 -1.452057 -1.726694 -0.944903 -1.443419 -0.160362 3.707560 0.466065 0.397689 -1.963693 -1.001438 -0.710322 1.306709 -2.307732 -1.962794 0.209383 2.545878 0.953678 0.239837 1.326353 -0.638437 -0.085678 2.404108 1.036139 0.623711 0.342086 1.589603 1.122173 -3.322970 -1.173200 -0.459822 -1.052200 -1.649035 1.745907 1.777651 -1.273076 0.449379 -1.154573 1.191745 -0.182023 0.476313 -0.537659 -0.972698 -0.657677 0.429595 -0.370622 1.715326 0.609354 -2.169155 0.266796 -0.236104 0.623540 -1.552706 2.325161 0.433145 0.767401 -0.805145 0.249778 -0.291185 2.508735 0.307851 -0.588937 -2.746626 0.842014 -0.695714 -1.026897 -0.042926
have -0.515567 1.308369 1.463829 1.646132 0.363980 -0.466803 1.461775 -0.560976 0.936563 0.577436 -2.193117 0.402779 0.541419 0.883668 0.950845 -0.741795 -1.373448 -1.756848 -2.021616 -2.194232 1.609808 -0.112711 2.402920 -1.633377 2.143408 2.360264 1.249110 1.178616 -1.104460 -2.497310 -1.398256 1.458991 -0.142761 -0.506274 2.076154 -1.193789 2.147921 0.075855 2.460089 -0.860462 -0.630796 -1.886993 -2.111213 1.531174 -0.329701 -2.483062 -0.964009 -0.205168 -0.857994 -0.305516 0.488594 -0.844022 1.668860 0.871863 1.015150 1.473393 0.562108 -0.451234 0.502397 0.135112 -1.778300 0.412540 0.269301 -0.553591 2.829108 0.672464 -0.327167 -0.159982 0.247767 -0.915920 2.317541 1.733053 0.029531 1.510368 -2.113122 -0.707692 0.492755 1.348368 0.914721 1.011817 0.558145 -0.024299 1.259832 0.224813 1.488428 0.014537 1.166890 -1.349254 -0.130495 1.064156 -0.520165 1.092682 -0.875884 -1.097642 0.055374 -0.913823 -2.775916 -0.892126 -1.293024 0.149722 -0.556516 -3.648044 -1.495404 2.480725 -0.618277 -1.341838 2.282512 1.373486 1.128449 -0.022720 -0.091264 -0.130663 -0.326783 0.701706 1.965816 -0.129388 0.084267 2.329870 0.046331 -0.725589 1.590229 -0.524002 -1.789212 0.144406 0.522987 2.897128 0.144919 2.050309 0.365722 -0.071619 0.090877 0.458331 1.484614 0.145058 0.556311 -1.482061 0.720534 0.233662 0.917073 0.382789 -0.586143 1.057781 -0.605893 -1.217718 -0.228766 -0.323111 -1.269399 -2.205211 0.012515 1.295931 0.738669 -0.216565 -0.450293 0.067270 1.829306 0.220516 -0.183843 -0.695623 0.715706 2.372295 1.813010 -4.032316 -2.065314 2.394936 -2.578433 -2.236098 1.159480 2.624253 -0.180746 -1.108766 -2.155237 0.171664 2.087199 -0.779904 -0.090969 -1.221229 -1.270190 1.162267 -0.245352 0.780047 3.070335 -0.798864 -1.585040 0.859245 -1.075051 0.872116 1.900356 -0.453427 0.245009 -2.060496 0.497069 1.110722 1.992768 0.667904 -1.051525 -1.342512 -0.108586 -0.221567 0.366258 1.781552
were -3.145917 1.430950 0.291675 -1.136733 0.129250 -0.864942 -0.569379 0.653686 0.580711 0.907340 0.524397 0.933507 0.491508 1.256294 -0.729726 0.334360 0.010881 -0.433792 -0.776377 -1.623419 0.469092 0.013374 0.315151 -1.131564 2.273936 0.790508 1.490945 1.117893 -0.675004 -1.111096 -1.431005 -0.000706 -0.230857 -0.753521 -1.014981 0.004527 -1.220668 1.112905 1.539736 1.034977 -2.140062 0.077951 -1.511937 0.260619 -1.957206 -1.396636 0.950861 1.744476 -1.167021 -1.373821 2.576663 0.565901 0.850661 0.647206 0.436743 -0.264120 2.056356 -0.446921 -3.030542 1.298098 1.562619 1.114328 0.506895 -0.200775 1.069606 2.263010 -1.185412 -0.551292 -1.248526 0.917716 -0.800257 2.342498 -0.052345 2.666506 -0.834060 -2.366416 0.344916 3.434541 0.344681 0.395490 0.757431 -1.093695 -1.262629 1.198583 2.461952 1.469878 -0.080788 -1.621580 0.106668 -1.627737 -0.782960 -1.682573 -1.275688 -0.331359 -1.133391 -0.444504 -1.956812 0.504498 0.343645 0.248678 0.226724 -1.282616 -0.878197 2.716682 -0.141882 0.071482 3.546204 0.919665 1.040792 0.680946 1.872072 0.925983 0.073732 0.449096 1.818523 -0.936372 -0.189260 0.492824 0.953741 -1.196132 2.414467 -0.493141 -1.735702 -1.291785 0.886568 0.243624 -1.909547 -1.405779 0.779443 -2.343273 -0.172498 -0.261312 3.050839 -1.193267 3.835246 -0.263372 1.679285 2.276340 1.027534 0.787815 -0.940312 1.565834 -0.199094 -3.076967 2.397300 -0.109506 0.607178 -1.414813 1.509921 0.221633 0.172976 -2.258978 -0.383929 -0.583487 1.128759 0.278924 -1.094434 0.552746 0.620437 0.922327 0.338183 -1.838361 -0.595918 1.212198 0.276807 0.049319 0.451532 1.478732 0.748947 -1.303580 -0.849499 0.988411 1.728599 -1.159781 0.983140 -2.071058 -0.374885 0.001889 0.110847 -0.168349 0.315870 -1.273899 -0.604672 1.563766 -0.058325 0.670487 -0.557063 -0.510910 -0.975253 -1.097202 -0.453337 2.586208 -0.762209 -0.862734 -2.556685 -0.874643 0.211938 0.699069 0.630968 -1.943029
has 0.246949 0.791898 0.023079 1.289969 1.482765 -1.165352 2.374265 -0.400648 2.218500 -0.882372 -1.094864 -1.880977 0.179486 -0.575206 0.411532 -0.468114 -0.867203 -1.041086 -0.678955 -0.990496 0.712265 -0.802102 0.979981 -1.205195 2.189375 2.517994 1.332135 2.030551 -2.130069 -4.084555 -1.343570 1.429945 0.475117 -0.990729 1.475747 -2.578748 2.044562 -0.343603 1.400799 0.133353 -0.005111 -0.266353 -1.357774 1.123442 1.312718 -0.907119 -0.059300 -0.513205 -0.090888 -0.573278 -0.794061 -0.717571 0.987579 -0.417329 -0.041376 0.855527 -1.894658 -1.361403 3.737112 0.865357 -1.579543 1.704830 -0.577844 -1.390009 2.007903 -0.377443 -0.455921 -0.336463 -0.225963 0.300613 0.465910 0.071319 -0.788779 1.274172 -2.804147 -0.813673 0.710123 1.938202 0.533006 0.016151 -0.264239 0.935643 -0.524780 -1.175169 0.169878 -0.704744 0.557593 -0.650100 -1.966050 2.214031 1.681672 0.565404 -0.805230 -0.238946 0.194317 0.671972 -2.315782 -0.588270 -1.828581 0.318624 -1.546787 -2.523724 -1.286498 1.921510 -0.087102 -2.386580 0.702250 0.238469 0.157523 1.461312 -0.370321 -2.072472 -0.182301 -0.201119 0.898163 -0.716882 0.137850 2.516183 3.663428 -0.837248 1.046991 0.823675 -1.679809 0.174847 1.165899 0.078655 0.273334 1.623933 -0.672746 -0.244279 0.211633 -0.186086 0.564232 1.510763 0.846520 -1.321038 -2.564360 0.718212 1.443414 -1.430988 -0.081165 0.839362 -1.459505 -2.939663 -2.580389 -2.458841 -1.788499 -1.442997 -0.060458 2.000279 0.530709 0.278287 0.000738 0.564701 0.230896 -0.707660 0.086074 1.244083 0.500304 -0.314604 1.188231 -1.903397 -0.324811 0.669827 -2.411186 -0.717583 0.480854 3.048645 0.284454 -0.747265 -0.484655 1.726605 1.001908 0.027495 0.343792 -1.894699 0.168402 0.599486 -1.208745 0.540567 1.026760 1.163415 -1.275729 0.434694 -0.997299 0.707572 1.319748 -0.844695 -0.202583 0.556084 0.675020 -0.529072 0.897065 0.552859 1.057470 0.037702 -1.667783 -1.391024 0.893419 2.722576
but 1.020124 0.476082 0.451448 0.415302 -0.786819 0.854205 0.574609 -1.282864 1.182937 -0.444796 -0.696342 -0.235739 -1.489578 0.342652 -0.406945 -0.575503 -0.897081 -0.485996 -0.328973 -1.241500 1.203278 0.450247 0.320507 -1.500088 0.021153 1.786727 -0.049694 -0.719193 -0.843501 -1.893192 -0.178369 1.478150 -0.718399 -1.778486 0.136967 -0.662841 0.917872 0.044205 0.619843 -0.787724 -1.209665 -0.443011 -0.898897 -0.851954 0.810881 -0.933430 -0.725106 0.596845 -0.490134 -0.569095 1.007354 0.452739 -0.158746 0.232624 1.082635 0.004572 0.859041 0.764649 -0.018194 -0.630304 -0.752269 -0.202454 0.144206 -0.427075 2.366822 2.673796 -1.056064 0.463065 0.395763 -1.414746 1.305696 1.005737 0.403588 -0.589051 -1.334637 -0.111159 -1.122414 0.994455 0.839074 1.394317 1.307762 0.193548 0.107994 0.551328 1.033416 -0.491888 -1.466712 0.384061 -0.264558 -0.451564 -0.610509 -1.224927 -0.704349 -2.099079 2.058423 -0.575150 0.132089 0.476993 -0.481204 -0.145485 -0.753880 -2.495396 0.774530 -0.068166 0.671608 -0.525207 1.565256 -0.230575 0.328576 0.665643 0.449844 -0.954801 -0.960294 1.337760 -0.374639 -1.102366 -0.050878 0.722497 1.105194 -2.019794 2.116603 0.264848 -1.078749 0.758721 0.504906 0.503715 0.031532 -0.261180 1.210919 -0.522028 0.539885 -0.792030 -0.128800 0.276310 -0.075093 0.326149 0.635614 0.513050 0.456590 2.685515 0.410966 1.644228 -1.217393 -1.792323 -0.756958 0.382994 -2.007857 -0.178121 0.894173 1.623569 0.204365 0.169399 1.003703 -0.316974 0.064471 0.400278 -0.008678 0.473401 0.777773 1.938781 2.035333 -1.626924 -0.688198 -0.070308 -0.332356 -1.295133 0.903993 1.589120 -0.695310 -0.412985 -0.369517 0.523125 0.431664 -0.446618 -0.928844 -1.922718 -0.559210 0.132046 0.004288 1.236764 1.058714 -1.445934 0.496924 1.301320 0.134843 -1.358538 0.798137 0.695815 0.503987 -0.517365 -1.124523 0.356179 1.163123 -0.161132 -1.004673 -1.857832 0.890229 -0.588951 -0.456294 -0.612843
other 1.289405 1.025575 3.066619 0.406604 -0.577919 -0.742056 -0.196581 -0.274374 1.530291 -1.047815 -0.808941 -0.599496 1.126315 0.267510 0.204269 0.264294 -1.823277 -2.168684 -1.408413 -1.589441 0.416863 -0.088696 0.400065 1.653470 0.566605 0.951254 0.707132 1.108621 -0.195258 -1.028617 -2.588039 1.054183 -0.382461 -0.354090 1.136235 -0.028968 1.469779 -0.110555 1.783111 1.404887 0.755087 -2.100586 -0.352840 1.612997 -1.893554 -1.691460 0.555416 0.450209 -1.364949 -0.223383 0.821442 -0.253450 -0.430275 -0.082607 2.168652 -1.536846 0.987125 0.873453 -0.979517 -0.496209 0.128895 -0.402366 0.063787 -0.748397 -0.752740 -1.138504 -0.505634 0.412907 -0.327255 -0.028097 -1.317419 1.788957 1.720718 2.617204 0.204953 -1.651430 -0.100485 0.487268 -0.479718 0.474665 -0.559190 -1.216974 1.403691 -1.972214 0.367681 0.439321 -0.679388 0.104118 0.212666 -0.054444 -0.432471 0.629693 0.042156 0.513059 1.323977 -1.101985 -3.627306 -1.022864 -1.548942 0.198494 0.165600 -1.637455 0.044215 1.042996 -0.327686 -0.254495 0.105353 0.983749 0.222189 -1.397012 0.471500 -0.467153 -0.522995 2.216964 -0.458296 0.598001 0.317197 0.288763 -2.292738 0.352327 1.971234 -0.819191 -0.966178 0.559415 1.216281 1.705666 0.262593 0.211384 0.443110 0.586942 0.945394 -0.546854 1.988249 -0.164428 1.606705 -0.077046 1.899517 -0.172813 -0.933110 0.369165 -1.432142 1.404580 -0.892940 -1.253731 0.977891 -0.788212 1.204810 -0.135734 1.089292 -0.190310 0.399999 0.057040 -0.493191 -0.735325 0.564256 0.480345 0.094119 0.150239 -0.670815 1.255233 -1.030331 -2.012811 -1.464415 2.344943 -1.462630 -1.228627 2.060413 1.035411 -0.155184 0.891562 0.413342 -1.339352 1.239554 -0.952341 -0.986495 0.438811 -0.408913 0.111940 -1.503574 1.335910 0.461250 -0.977820 -1.219062 -1.967535 -2.095942 -1.218718 1.677806 -0.511145 0.260345 -0.146107 -0.592411 1.073953 0.795104 0.552694 2.017384 -0.657088 -0.876798 0.235434 -1.368854 -0.341062
their -1.763186 2.233528 2.802951 0.605066 -2.011352 1.134833 0.368024 -0.513609 0.194906 -1.795430 0.474598 -0.058419 0.724725 1.182750 2.110587 -0.918669 -1.050912 -1.162118 -2.051885 -1.804419 2.261423 1.162106 -1.400404 -1.010407 -2.566733 1.541402 0.335752 -0.562473 1.125659 -0.912473 -2.008182 0.667010 -0.317566 -0.903431 -1.017695 -0.852838 0.424448 -0.214430 0.053844 -1.630947 -0.127819 -0.630429 -1.949211 0.425621 -0.248918 -2.021988 0.553922 1.635411 -0.252931 1.189847 1.000101 1.871728 0.262300 0.838486 0.541340 0.711492 2.386620 1.352445 -2.930122 -3.170354 -0.271484 1.613205 0.739090 0.013170 -1.240117 -0.522483 -0.119061 1.452098 -0.292595 -0.408715 -1.683017 0.491236 0.786884 1.313533 -0.153203 -1.561002 -1.575150 1.274206 0.554843 1.088326 1.341740 -0.159049 -0.114423 -1.354840 1.296061 0.901362 -1.355904 0.051290 0.400539 -1.086083 -0.099891 -0.495415 -1.439898 -0.568091 1.659547 -0.028657 -1.622503 0.470943 -1.063201 0.420434 -0.504210 -1.549606 0.058105 0.273334 0.691698 -1.011923 1.547741 2.132870 0.152959 -1.690358 -0.182337 1.467395 -0.024398 3.028790 0.791134 0.590783 0.195906 1.742512 -0.801024 -1.039068 1.485314 -1.985193 -2.744396 0.432164 1.103093 1.592424 -1.551857 0.659590 0.689579 -1.243335 0.034381 -0.546421 1.027766 -1.088087 2.567961 0.603589 2.421558 0.731411 1.825344 0.669642 -3.351522 1.084441 -0.817032 -1.870289 2.227364 -0.436855 -0.645416 -0.848006 3.150599 0.709824 -1.188032 -1.090559 -0.035838 -0.196683 0.471727 1.453558 -1.182716 0.701614 0.282212 1.719026 0.040256 -2.688678 0.209121 0.712984 0.408283 -2.002343 2.163898 1.473553 -0.316369 -0.222124 1.835347 -1.925694 -0.794380 0.034096 0.898126 -1.130784 0.730588 1.310575 1.394407 -1.623931 0.160374 0.530038 0.173290 0.101523 -0.569101 -0.980279 1.660635 -0.742547 0.015209 -0.350850 -1.474889 0.404054 1.114086 1.447139 -0.333201 0.867737 -1.902019 0.241531 0.029810 -0.145916
its 0.843601 0.518729 2.176222 1.568356 -1.584105 0.279842 1.963283 -1.750911 1.304160 -0.956306 1.193953 -1.420326 0.945603 0.886210 -0.219874 0.033381 -0.436710 0.269295 -0.011074 -1.243335 1.099416 0.556026 -0.783824 -1.420007 -1.478215 1.533536 1.988392 -0.645307 -0.252457 -1.519941 -0.690852 1.790280 0.716746 -1.085485 -1.668193 -1.563098 0.030771 -0.968890 -0.582054 -0.433185 -1.401153 -1.481501 -0.175742 0.896429 0.364639 0.022884 1.118363 -0.441841 0.439020 0.003077 0.400441 2.001822 0.990473 -0.201720 0.434022 0.158496 -0.712373 -0.078214 1.082782 -0.559032 -0.719549 1.652999 -0.603714 0.504885 -0.170040 -1.843134 0.410699 -0.114257 0.783568 -1.454508 -2.577245 -1.522620 -0.164205 -1.635605 -1.238307 0.287745 -0.967188 0.942989 1.345408 1.158630 0.760357 1.322138 -1.412029 -0.810133 0.808796 -0.555966 -0.555535 -0.535583 -0.988842 -0.341454 2.039312 -1.404150 -1.952717 -0.986939 0.867571 -0.541505 -0.177783 -0.040720 -2.394780 0.118377 -1.366590 -2.247956 -0.066106 0.286369 0.888390 -1.038282 -0.184889 1.492279 -0.553023 -0.511387 0.006637 -2.253209 0.630124 3.737232 0.165622 -1.347507 -0.097430 1.689326 0.990827 -0.259582 2.427088 -1.060331 -1.928839 0.239021 1.565886 -0.273296 -0.882042 0.975264 1.200449 -2.244533 0.549239 -1.114693 0.444779 0.495881 2.266255 -0.424015 -1.495463 0.889362 0.465057 0.024719 -2.434600 0.211675 -0.450173 -2.349692 -0.041184 -1.529921 -0.289340 0.269409 0.836251 0.066422 0.442526 -0.037822 1.005777 0.955237 -0.378036 0.585601 -1.217199 0.857226 0.411532 0.809267 -0.906222 -0.866378 0.664229 -1.032612 -0.658226 -0.988760 1.246513 1.440944 -0.829434 0.772777 1.653235 -0.540859 -1.084428 -0.116402 1.606579 0.169870 0.639984 -0.184207 0.105620 0.137361 -0.289916 2.459068 1.035916 0.906608 1.320766 0.217770 0.687651 -0.575971 0.360725 0.557084 0.385793 -0.081683 0.241324 -0.872169 0.092249 1.036846 -1.313761 -0.915642 -0.034704 1.664859
first -0.798391 -1.050271 0.021262 -0.705977 2.570524 -1.850313 -1.382487 -1.244601 -0.201073 -0.346349 1.144315 0.365248 0.802285 -0.157748 0.649393 0.552082 0.597555 0.664638 -0.018134 -0.462258 -0.986353 0.120316 -0.855668 -0.255494 -0.909550 0.657198 0.206191 -1.294851 0.273955 1.148412 1.234215 -1.480460 1.115791 0.716496 1.719048 -0.237238 -0.529286 -1.924562 0.986907 -0.253003 1.590755 0.911173 0.841793 -1.001892 0.766462 0.591997 -0.096553 -0.463319 0.067934 -0.440701 -1.085028 -0.620722 1.062037 0.141195 0.188721 -0.827201 -1.623504 -1.544769 0.561101 0.658956 0.899858 0.793827 0.903519 2.045793 0.542572 0.574067 -2.355362 -1.655692 -0.079931 -0.606956 -0.710241 0.781196 -1.310894 -1.176488 -1.592030 -0.072300 -0.087076 -0.717313 -0.780369 -0.048342 0.916249 0.002200 -0.389958 -0.709495 0.570916 -0.678391 0.228203 0.471276 0.423204 -1.276180 0.181164 0.290642 -0.154472 0.394587 1.813676 1.499480 1.857704 0.128357 -0.167464 0.722397 1.118794 2.229883 -0.400488 -0.636224 0.562020 1.298134 -0.982745 -1.406314 -0.775996 0.929240 -0.814655 0.132534 -0.573433 -0.842280 2.436166 0.914501 1.027461 -0.177127 0.681908 0.939163 0.735174 -1.164707 -2.305098 -0.673732 1.394867 -1.326274 0.189594 -0.366218 0.907213 -1.353639 -0.615165 -1.173989 0.797323 -0.108413 0.876687 -0.840254 -0.530556 0.194035 -0.508555 -1.355253 0.410600 0.699469 -0.988405 -2.971057 -0.472300 0.800602 -0.235246 1.176574 0.925255 1.651486 0.241119 0.249902 0.305302 -0.038519 0.367137 1.143736 -0.437099 0.769690 0.585856 -0.372723 -1.292305 -1.542885 -0.147211 -0.884313 1.770540 -0.877930 -0.813487 -0.218375 -1.302099 -1.806006 -0.627057 1.923709 -0.673683 1.205711 0.306233 -0.169167 1.500651 0.416598 0.098156 3.321078 -0.772358 0.289188 2.278789 -0.476088 0.925310 1.332178 -2.033099 -0.519336 0.449058 0.464029 0.973199 0.101892 -0.904081 -1.046077 -0.195383 -0.395255 0.252094 0.808919 -1.342340 -0.230025
they -2.053813 1.511060 1.552615 -0.451026 -1.851923 -0.520095 -0.056085 -0.358960 0.512319 0.176850 1.338504 -0.309083 -1.216373 0.960248 0.479018 -0.536942 -0.379565 -1.822204 -2.460261 -0.572828 2.519840 0.886433 -0.448816 -2.029933 -1.116390 0.213022 -0.378225 -1.286510 0.031190 -0.000090 -1.581411 1.738711 -1.094277 -0.589930 -0.964651 -0.021080 0.118408 0.401978 0.953228 -0.835371 0.104557 -0.421373 -0.978771 -1.520441 -0.072520 -0.846244 1.559806 1.889031 -0.971191 0.576207 0.175563 0.595114 1.917984 1.141700 -0.800899 0.597035 1.571443 1.009387 -2.225837 -1.873889 0.653541 0.540666 1.805858 -0.261680 1.932556 2.287004 0.121554 1.166659 2.296063 -0.690812 1.055916 1.644559 1.027434 1.940646 0.378598 -0.735415 -1.366998 0.929635 0.895039 1.888312 0.314376 -0.827237 1.445494 0.416845 0.470558 1.550141 -2.077682 0.335577 -0.261307 -0.280153 -1.509118 -0.116230 -1.359104 -2.208657 3.589784 -0.664527 -1.899525 0.405124 -0.264354 -1.083371 0.152446 -1.244864 1.359230 -0.850006 -0.100063 -0.127352 2.077818 1.050929 0.033906 -0.332842 0.494698 0.035317 -1.217237 0.199400 0.704055 0.780376 0.892718 1.040807 0.648546 -3.215464 -0.004527 -0.197666 -2.067675 0.985544 1.585390 2.320525 -0.496551 0.408420 1.608501 -0.425361 0.511969 -0.445126 1.200236 -0.253934 0.162585 0.996544 2.722897 -0.283781 1.890120 1.982087 -0.967815 1.277772 -0.845420 -1.710399 1.771598 0.738034 -0.667855 -0.699797 1.255972 2.181872 0.418114 -0.386250 -0.463919 -0.018356 0.054355 2.435617 -0.956120 0.533624 2.205502 2.266192 1.715615 -2.540880 -1.012312 -0.547906 -0.312449 -1.173629 1.764899 2.082703 -0.299094 -1.867779 0.518543 0.364489 0.157584 0.613656 -0.158648 -0.858648 -0.030356 0.772014 0.458028 -0.233990 0.855281 -3.387146 -0.838622 0.734012 -1.427566 -1.544350 2.585200 0.006497 0.196421 0.109127 -0.732696 0.557717 1.231107 2.176713 0.667016 -0.904577 -1.222789 0.300541 -0.471915 -0.786167
some 0.546884 1.726855 1.773538 -0.125961 -1.029340 -0.257813 0.560695 -0.148100 1.731789 -0.706213 -0.342161 -0.825051 0.619614 0.045178 0.434346 0.557377 -1.067189 -0.246098 -1.554136 -1.190306 2.084898 0.243168 -0.243535 1.015126 -0.593410 1.341594 1.068861 -0.229129 -0.588139 -0.902670 -1.808619 1.041438 -1.298774 -1.665502 1.062364 0.876855 1.081688 0.926062 -0.418861 -0.372402 0.265776 -2.535286 -1.382857 2.336970 -1.309445 -1.872767 0.759914 1.175226 -0.727333 -0.158584 0.683265 -0.630751 -0.613839 1.072500 1.383589 -1.562217 0.892562 0.117413 -0.941375 -0.166535 0.483075 0.611516 0.647686 -0.957487 0.383845 0.593993 0.059173 0.061289 1.022336 -0.197943 -0.365542 1.439768 0.710609 1.046842 -0.436683 -0.534744 0.319331 0.980262 0.172073 -0.301783 -0.219862 -0.077229 0.051111 -1.759554 0.701301 -0.252739 -0.834149 0.134283 0.822191 -0.264008 -0.244391 0.380355 -1.269523 -1.095538 2.210963 -0.883307 -2.231514 -1.462403 -1.125672 -1.294490 -1.298459 -2.657350 0.126008 1.462090 0.660078 0.141097 0.617347 1.191478 0.210448 0.123700 1.324765 -1.428863 -1.245998 2.151932 -0.490998 -0.233902 0.041398 0.107539 -0.594463 -0.694198 -0.514520 -1.516070 -1.536338 0.939125 1.410942 1.365855 -0.634755 0.062417 1.101229 1.020407 1.139677 0.061644 1.560717 0.319522 0.075967 -0.466784 1.095332 -0.459385 -0.998228 1.027515 -0.370032 2.047644 0.069098 -1.210597 0.401267 0.912583 0.459520 -0.942420 1.467058 1.417708 0.431303 -0.755126 -0.231029 0.112583 0.726453 0.879628 0.017723 0.425929 0.968458 2.281501 -0.074066 -4.288093 -0.777624 3.805667 -2.772515 -1.160852 0.559182 2.292013 -0.748390 -1.090032 -0.975841 -0.842140 1.295991 0.654211 -0.797862 -0.093174 0.041484 1.195817 -1.356478 -0.173141 1.438502 -1.079613 -1.399803 -0.431599 -0.203876 -0.722639 1.809770 -1.411665 1.329660 -0.845675 -0.463137 2.190012 0.690431 -0.810838 1.475515 0.342169 -1.577011 0.578558 -1.463977 -0.426624
had -2.734937 1.602902 -0.099691 0.316708 2.122640 -1.487017 0.378811 0.425212 -0.365649 -0.060243 -2.015437 -0.153942 -1.581713 0.773163 0.043969 -0.828518 0.888510 -0.491965 -0.322120 -1.053251 0.607094 -0.126249 1.930603 -2.093306 2.627360 0.711552 -0.004626 1.038641 0.145798 -1.598471 -0.134310 -0.786478 -1.045645 -0.081540 -0.377387 -1.962575 2.283851 -0.585792 1.886866 0.147879 -0.453455 0.140078 -2.386211 -1.705324 -0.178784 -0.843717 0.915681 1.805776 0.972584 -0.806007 -0.356635 0.684027 1.892177 0.164062 -1.470833 0.307017 -0.571008 -1.137931 1.001768 0.612301 -0.156286 1.627756 -0.407698 -0.996838 2.519903 2.033416 -1.494641 -0.053893 -1.502319 1.076237 1.505286 1.822420 0.777551 2.533191 -1.771261 -1.595487 -0.423422 2.405909 -0.969789 1.523309 1.900512 0.628423 -0.734170 0.357142 2.192412 1.063185 0.263230 -1.091142 0.466957 0.132311 -1.123869 -1.050695 0.425658 -0.227835 -0.425430 0.772945 0.656831 0.723533 0.110790 1.353946 -0.240113 -0.058071 0.577710 2.351038 0.813562 -1.461536 1.348031 1.924621 1.793515 0.963764 -1.664503 1.172214 0.704605 -0.293928 2.087816 -1.284122 0.815103 1.563083 3.026824 -1.846641 0.378741 0.843052 -2.387225 -1.020770 0.449187 -0.559059 -1.944671 0.787037 0.223615 -2.124149 -1.251311 -0.651530 0.890452 -0.819858 1.677719 -0.942256 -0.225098 1.773722 2.567445 1.287284 0.898537 2.782831 -1.043642 -3.874498 -0.359952 -0.947499 -1.937200 -1.242994 2.323578 2.711502 -0.543054 -1.916109 -1.549711 0.422584 1.134783 -0.591618 -0.193002 1.799729 0.713989 0.680595 2.078426 -0.518374 1.015876 -0.557693 0.491875 -1.693905 0.629471 1.615900 1.765310 -3.423562 -1.083110 1.937865 1.415903 -0.778577 0.835213 -3.214264 0.109976 0.120078 0.277771 -0.459509 1.113606 -0.190457 0.162146 2.234423 1.568262 -0.818965 0.116361 -0.389045 -1.096607 -0.008800 -0.527731 -0.510916 1.036486 0.326679 -2.314099 -0.565408 -1.446039 -1.006441 2.587935 0.538652
all -0.582434 -0.317704 -0.457745 -0.073444 -0.994396 0.362474 -0.232549 -0.137504 0.774085 -0.400415 -0.034788 0.319417 1.603001 0.930626 1.052144 0.743740 -0.947768 -1.475630 -1.195751 -1.259571 1.596005 0.978898 -0.078512 -0.990685 -1.053010 1.565921 0.212951 -0.131583 -0.350200 -0.805548 -3.464245 0.607437 -0.246991 0.364857 0.747038 -0.193826 1.721446 0.793569 3.133499 -0.327059 -0.305930 -0.937143 -0.988558 0.376588 -0.376587 -0.877159 -0.167800 0.895046 -0.168111 -0.260711 -0.779571 0.460962 -0.657689 -0.468556 2.454726 -1.352296 -0.104937 1.172983 -1.806868 -1.074752 0.143069 0.507348 0.006443 -0.798241 0.114438 -1.629760 0.177257 -0.952627 0.498928 -0.514070 -0.536260 0.915584 0.238773 0.362397 0.719903 -1.618589 -0.057398 1.956377 2.096694 0.034419 -0.311377 -0.904904 1.899115 -0.490794 1.053454 0.372571 -0.718354 0.912357 0.705161 -0.719280 -0.046031 -0.113965 -0.711651 -0.327116 1.866558 -0.695013 -1.172604 -1.227105 0.038546 -0.667232 2.367065 -2.493935 0.158855 -1.286220 0.275643 -0.622573 -0.111593 1.967686 -1.008183 -0.440466 1.502690 0.685578 -1.214182 1.161166 0.656467 -0.647329 0.601240 -0.777297 -2.109753 0.027384 0.321469 0.216642 -0.204894 1.253233 0.719068 2.251293 0.210138 -0.207620 0.263284 0.163927 0.956865 -1.011150 2.251868 -0.786232 1.487858 0.346699 0.622116 -0.215165 -0.398104 1.303261 -1.008574 -0.131591 0.328227 -1.813597 0.189487 -0.399428 0.289071 -1.274650 0.474353 1.097023 0.401969 0.264750 -0.621597 -1.204396 -0.318114 2.811354 -0.279838 1.108343 0.793244 1.581276 -0.318132 -1.391065 -1.605353 0.866314 -1.773607 -1.638491 1.562131 1.962909 -1.198032 -0.266042 -0.782131 -0.296746 -0.421650 -0.613196 0.665297 0.187646 0.696901 0.480316 0.204788 2.062276 0.148061 -1.101017 0.121575 -0.447638 0.380169 -0.742445 -0.014207 -0.099696 0.443703 -0.401841 -0.658598 1.598907 0.605464 0.392039 -0.645603 -0.038919 0.355504 -0.114094 -1.216002 0.079328
more 2.262574 0.935806 1.001601 -2.520206 -0.978482 0.328010 -1.533600 2.373310 0.199053 -0.574585 1.043302 0.180747 -0.388795 0.367420 0.279980 0.522008 -1.924158 0.479864 -1.325003 -1.044315 1.908744 0.005911 -0.454886 1.383911 2.767364 2.752791 0.983151 0.497989 -0.421351 -1.047492 -1.414460 3.152062 -0.443192 0.138949 1.408413 0.887466 0.360656 -0.653418 1.056745 1.145755 0.520277 0.100250 -0.366031 0.385378 -1.609409 -0.532074 0.329045 -0.671016 -1.786811 1.099182 0.430187 1.222159 0.546377 0.512809 1.093526 -0.535411 0.956723 -0.176772 -0.033408 0.047206 -0.849055 0.458078 0.888611 0.532587 0.326043 2.053957 1.535179 1.257797 -0.011990 -0.640124 0.553164 0.655941 1.538589 -0.642036 -0.350507 -1.465188 -0.062688 1.994120 -0.282522 1.802417 -1.328644 -1.775188 0.127452 -0.110976 -0.627302 -1.544646 -0.897862 0.282715 -1.458271 -0.030491 -1.029799 -1.969589 -3.163268 -1.645422 3.114189 -1.207076 -0.861806 1.913814 -2.207456 -0.286208 -1.313177 -2.731719 2.453975 1.312591 0.602188 -0.359529 0.088513 -1.162459 -0.205131 0.531666 -2.929896 -3.389117 -0.349392 0.782426 -0.032885 1.861870 -0.570862 -0.321527 0.415014 -1.528728 1.253113 -0.747990 0.177007 2.761940 2.086355 1.443370 1.226578 2.013107 0.185502 0.508869 2.393470 -1.931608 2.023416 2.108145 0.003546 -0.745983 1.195307 -0.400905 1.819068 1.033901 0.059000 0.379844 -2.166027 0.870759 -0.847127 -1.368776 -0.025692 0.157618 1.332599 1.351048 1.605246 -1.238433 -0.864205 0.342983 0.430584 0.039009 -1.283499 -0.001370 -0.946241 -2.376606 2.316095 -3.761734 -0.903930 1.585217 -2.149874 -0.715458 0.837910 1.628432 -0.365222 0.175791 0.853979 -2.598152 1.503859 -0.625629 -0.412699 -2.159462 0.113297 0.851571 -0.626981 1.397566 0.160538 0.922662 -0.968534 -2.193855 -0.835396 -0.444476 0.358601 -0.413288 2.143691 -0.692885 -0.348757 0.961032 0.809696 0.576671 -1.080768 0.348393 1.853257 0.407867 -0.326032 0.421273
most 2.461400 0.235803 -0.281238 -1.968231 -0.875972 -0.045571 -0.628884 0.619373 0.629135 0.837969 1.544996 -1.463794 1.977285 0.842695 2.454673 0.508685 -1.190364 0.830604 1.066199 -1.100239 1.661983 -0.108974 0.228669 0.070538 1.160853 2.722641 1.727622 -0.183645 -1.363074 -1.028573 -1.341100 1.156273 0.357916 -1.984063 0.478035 1.036281 0.281617 0.208362 2.481902 1.819279 0.735996 -0.822183 -0.294632 0.812028 -0.825026 -1.804520 0.345636 1.117225 -0.293240 -0.823582 -0.446070 0.506147 -0.291925 -0.288880 0.601102 -0.592647 0.747505 -1.589863 -0.364134 0.616215 0.301638 0.754416 0.949883 -0.910730 -0.303993 0.349294 1.137213 0.641053 0.797257 -0.641816 -1.462643 0.946499 0.334460 -0.915344 -1.381841 -0.768572 0.945004 1.671196 0.912810 0.188182 -0.848747 0.335166 1.174137 -0.030655 1.051367 -0.799857 0.612757 1.231420 -0.753561 -0.182222 0.264134 -1.887144 -2.266344 -0.277079 1.750740 1.283150 -2.347600 0.372717 -2.590531 -0.520777 -0.452674 -2.710991 0.437997 1.183145 1.580409 0.941866 0.243784 -1.578892 -1.119166 -0.156848 -0.610413 -0.773964 -2.124449 2.271909 -0.490625 0.771933 -0.502133 -2.146739 0.119182 0.717284 2.341576 -2.183221 -0.237807 2.027384 3.176205 1.041779 -0.298984 -1.968407 2.693790 0.542795 0.740514 -0.083210 2.144688 -0.209864 2.051478 -0.077970 0.573384 -0.630823 -0.140378 1.083777 0.054369 0.330325 -0.627791 0.030557 -1.166456 -0.702518 -0.850082 -0.372331 0.833254 1.743335 -0.416538 -2.634594 -0.641703 -0.390328 1.318455 -0.874616 -0.071622 1.366006 0.894838 0.002848 0.969411 -4.189904 -0.263779 2.168881 -1.149965 0.598003 1.327837 1.771645 -0.423800 0.663679 -0.610220 -0.626588 1.598216 0.758886 0.217093 1.066400 -0.201036 0.024600 -2.633568 1.828245 -0.615137 1.441704 -1.883080 -1.220112 -0.398947 0.990157 0.728516 -1.597493 0.149331 -0.641372 -0.161666 2.284499 -0.184417 -1.015737 1.424638 1.250946 0.048544 0.509358 -1.251624 -1.109590
